%YAML:1.0
opencv_ml_svm:
   format: 3
   svmType: C_SVC
   kernel:
      type: LINEAR
   C: 10.
   term_criteria: { epsilon:1.1920928955078125e-007 }
   var_count: 576
   class_count: 2
   class_labels: !!opencv-matrix
      rows: 2
      cols: 1
      dt: i
      data: [ 0, 1 ]
   sv_total: 1
   support_vectors:
      - [ 1.21524656e+000, -2.13992405e+000, -3.08634496e+000,
          1.39641070e+000, -1.94940761e-001, -1.08112359e+000,
          1.49116015e+000, 2.15752697e+000, -1.11421645e+000,
          -6.65259421e-001, -4.64717090e-001, -1.63623750e+000,
          1.77447453e-001, 1.64263353e-001, 8.64097297e-001,
          9.86428797e-001, -1.73637259e+000, 2.96139508e-001,
          3.20552289e-001, 6.31422400e-001, 6.75296843e-001,
          -2.19213915e+000, 2.77890384e-001, -6.44818246e-001,
          4.98314589e-001, -1.44015197e-002, -2.12262198e-002,
          -2.86385179e+000, -8.43289375e-001, -5.97365618e-001,
          -3.34005165e+000, -9.34841514e-001, -3.47627091e+000,
          -8.97881329e-001, -1.98276186e+000, 1.67522871e+000,
          1.18673742e+000, -1.29861641e+000, 5.05036950e-001,
          -1.78665191e-001, -8.92133772e-001, -2.07903460e-001,
          1.11812854e+000, 2.84840584e+000, -5.59258521e-001,
          -4.63560760e-001, 1.14277446e+000, 1.24574995e+000,
          5.14862537e-001, 4.65317182e-002, -1.47379637e+000,
          -2.65800571e+000, -2.21065307e+000, 1.74774611e+000,
          -5.63449204e-001, 9.64636743e-001, 2.08409190e+000,
          2.53360963e+000, -7.18052983e-002, -2.55502081e+000,
          1.70277700e-001, -1.10786092e+000, -1.11694181e+000,
          -1.32675219e+000, 1.17320573e+000, -9.36832249e-001,
          -5.34753919e-001, -1.66316426e+000, 6.62353992e-001,
          2.70597410e+000, -1.98650345e-001, 1.51277995e+000,
          -3.87798339e-001, -2.43876505e+000, 1.07698989e+000,
          -7.01516628e-001, 4.75751013e-001, 1.90572679e+000,
          -1.21127760e+000, -1.25672773e-001, 1.75044763e+000,
          -3.76054458e-002, 9.35695469e-001, -1.57107675e+000,
          2.81463623e+000, 1.00426233e+000, -7.73618370e-002,
          4.60441947e-001, 1.35023046e+000, 5.15446246e-001,
          -4.01132941e-001, 4.43557978e-001, -4.51736778e-001,
          -2.47478938e+000, -3.84284997e+000, -8.75278056e-001,
          1.17713892e+000, -1.30870020e+000, 7.82633722e-002,
          1.21666372e-001, -6.78237677e-001, -6.16820633e-001,
          1.91205823e+000, 1.84083664e+000, -4.35972631e-001,
          5.17650902e-001, 1.31086528e+000, -1.51139903e+000,
          4.11940992e-001, 1.03988719e+000, -3.91585141e-001,
          -1.63250595e-001, -5.95320202e-002, -1.39995801e+000,
          -5.66250503e-001, -1.43196094e+000, 1.94912410e+000,
          8.62416625e-002, 1.61699027e-001, 1.60619569e+000,
          1.73992407e+000, -1.79770875e+000, -1.56778133e+000,
          -1.20736742e+000, -4.56636548e-001, -1.30419302e+000,
          -4.29564744e-001, -8.43366504e-001, -1.13224792e+000,
          -1.77618766e+000, -1.48634028e+000, -1.60850894e+000,
          -1.30474901e+000, -4.64702010e-001, 4.96117324e-001,
          4.60848883e-002, 2.33713970e-001, -1.23093867e+000,
          9.52838734e-002, -1.06049049e+000, 3.33967566e+000,
          -2.38020921e+000, 1.76761818e+000, -3.06560206e+000,
          1.42282963e+000, -1.53950012e+000, -2.73469424e+000,
          5.46049654e-001, 1.44952536e-001, -2.10853887e+000,
          -8.19885373e-001, -9.59076464e-001, 6.16089642e-001,
          -2.39732671e+000, -8.80763903e-002, 9.49954271e-001,
          -1.19108580e-001, -1.64287969e-001, 7.01669753e-001,
          1.58253992e+000, 4.71735001e-001, -1.11716521e+000,
          -1.25020564e+000, -1.17603981e+000, -5.55101991e-001,
          -2.84467721e+000, 1.28289533e+000, 1.49127394e-001,
          2.12646294e+000, 3.08153301e-001, -6.37668967e-001,
          3.40848833e-001, -1.09684670e+000, -4.99842316e-001,
          -2.31203008e+000, -1.52834132e-001, -1.53904605e+000,
          -1.38367188e+000, -1.52748966e+000, -2.73680210e-001,
          -2.70157862e+000, -3.64953429e-001, 7.99739212e-002,
          1.39733577e+000, 1.51395190e+000, -2.86650395e+000,
          -1.76179886e+000, 5.05800128e-001, -1.56512761e+000,
          -2.03100324e+000, -3.94332588e-001, -1.60220611e+000,
          -4.28421259e-001, 5.30923843e-001, -1.35269070e+000,
          -1.43327713e+000, -1.21991944e+000, 2.08931732e+000,
          7.01704204e-001, -1.97180077e-001, 8.50517571e-001,
          8.11567068e-001, 2.91316390e-001, -5.18667459e-001,
          8.94398332e-001, 9.45048809e-001, -2.14993194e-001,
          5.92119992e-001, 7.72077918e-001, 7.69126236e-001,
          -2.01519680e+000, 2.65584320e-001, 6.59230888e-001,
          5.24972200e-001, -6.85860932e-001, 4.47337806e-001,
          -2.05405399e-001, -1.65649042e-001, 3.54664624e-002,
          1.71489298e-001, 9.70441103e-001, -1.67813599e+000,
          -6.38721347e-001, 1.37361050e+000, -1.96358395e+000,
          6.38291836e-001, -8.28995943e-001, 1.75296277e-001,
          -1.74095678e+000, -3.14099580e-001, -2.20318818e+000,
          5.75228512e-001, -4.89593327e-001, 2.03640550e-001,
          -1.35690361e-001, -5.68242073e-001, -9.30023611e-001,
          -2.34048992e-001, -1.88591272e-001, -8.61039340e-001,
          -7.32622266e-001, 1.91940618e+000, -3.93913388e+000,
          -1.51258564e+000, 5.00617921e-001, -1.59871900e+000,
          -1.00275862e+000, 6.76634371e-001, -8.43416393e-001,
          -1.54012835e+000, -6.44176185e-001, -1.56293559e+000,
          -1.65145457e-001, -8.39287043e-001, 6.02065623e-001,
          -2.12201428e+000, -2.27826595e+000, -1.23009121e+000,
          7.50676215e-001, -1.29484105e+000, -8.26643169e-001,
          -2.00634027e+000, 4.50453579e-001, -1.62225842e+000,
          6.27966106e-001, -4.59904790e-001, -4.53175259e+000,
          -8.56686771e-001, -2.60000205e+000, -4.82423156e-001,
          -1.93726435e-001, 4.94555622e-001, -1.75609601e+000,
          -1.42371953e-002, 2.45231003e-001, -1.28622401e+000,
          1.75170243e+000, -3.39054370e+000, 1.64464450e+000,
          -1.39123666e+000, 2.66145319e-001, -8.18924785e-001,
          3.74955863e-001, 7.52967894e-001, 9.35825765e-001,
          1.29051924e+000, 8.21168125e-001, 2.04547882e+000,
          9.31270003e-001, -6.68876693e-002, 3.07040930e-001,
          2.98338324e-001, 1.22952604e+000, -6.71696588e-002,
          1.47675955e+000, 1.60269415e+000, -1.65953755e+000,
          -4.68254298e-001, -1.28351045e+000, -2.26849541e-001,
          -8.22510123e-001, 6.98367596e-001, -2.12939382e+000,
          -1.00006115e+000, -6.88569993e-002, -1.32350481e+000,
          7.89309621e-001, -9.12239850e-001, -1.60390806e+000,
          4.49021161e-001, -1.82673201e-001, -7.98993468e-001,
          2.24360847e+000, 1.04604864e+000, 1.09834599e+000,
          4.10302973e+000, -2.49212429e-001, 1.65186095e+000,
          -1.64225906e-001, 1.19193459e+000, 1.27011919e+000,
          2.10293198e+000, -1.20295227e+000, -1.61448553e-001,
          -2.07375789e+000, -6.94262803e-001, -2.07544065e+000,
          -5.76101124e-001, -8.22361648e-001, -1.73406887e+000,
          6.29439473e-001, 1.52910972e+000, -2.40620327e+000,
          9.62804854e-002, -1.83716968e-001, 1.86205757e+000,
          2.31926870e+000, 1.32502103e+000, 5.15970230e-001,
          1.01085353e+000, -2.11402082e+000, 5.06749272e-001,
          -1.75314677e+000, -1.19506574e+000, 3.08792919e-001,
          -9.83584881e-001, 6.01461194e-002, -6.85367167e-001,
          9.80344892e-001, -3.16031003e+000, 9.97703150e-002,
          -1.18909121e+000, -1.06857359e+000, 7.56345630e-001,
          -1.24947488e+000, 1.95777386e-001, 2.86804986e+000,
          4.01165098e-001, -6.27135515e-001, 3.08304548e-001,
          -1.29952812e+000, 4.68073934e-001, -5.23465514e-001,
          -2.30647326e+000, 1.13624334e+000, 1.11104620e+000,
          2.88287187e+000, -8.11895132e-002, -1.21691920e-001,
          3.77834558e-001, 5.72040081e-001, 3.51767349e+000,
          9.08808112e-001, -5.24932802e-001, -2.24191284e+000,
          5.36710955e-002, -5.78186631e-001, 3.41397667e+000,
          -1.72588360e+000, 7.91059911e-001, -1.75267637e-001,
          -3.93179327e-001, 6.20198727e-001, 8.90657246e-001,
          -2.70343208e+000, 9.33141232e-001, 7.87838876e-001,
          -1.22925472e+000, 2.26286680e-001, 5.72601855e-001,
          1.75209606e+000, -2.25631094e+000, 1.00157356e+000,
          -6.49238110e-001, 5.33340812e-001, 1.93883908e+000,
          -1.01122785e+000, -2.68677503e-001, -1.83439648e+000,
          -5.69119632e-001, -7.57164210e-002, -4.59584773e-001,
          1.19114232e+000, -9.09699500e-001, -6.98682904e-001,
          -5.91196775e-001, 4.13568449e+000, -7.19884858e-002,
          -4.17157412e+000, 8.71582150e-001, -4.35279459e-002,
          -7.14736342e-001, 6.36677206e-001, 1.21560848e+000,
          1.57779408e+000, 2.09259033e-001, -9.18730140e-001,
          2.34829143e-001, -2.64512444e+000, -2.09157443e+000,
          2.16029689e-001, 5.83276093e-001, -1.00017560e+000,
          -2.42038667e-001, 6.36565983e-001, -1.06713021e+000,
          1.42401695e-001, 7.20110059e-001, 2.06982836e-001,
          -1.92152047e+000, -1.85031116e+000, 2.00252950e-001,
          3.12812686e-001, 4.15326864e-001, -5.18057585e-001,
          -1.37561023e+000, -2.90169656e-001, 1.85093844e+000,
          -8.80464256e-001, -1.21987987e+000, -3.87839764e-001,
          -1.76071870e+000, 1.90940106e+000, -1.91755259e+000,
          -1.17835295e+000, -3.28902459e+000, -1.41724145e+000,
          9.59985375e-001, -2.91251570e-001, -1.37014365e+000,
          2.00544477e+000, 3.03653985e-001, -1.12689525e-001,
          -1.08881700e+000, 1.43942106e+000, -1.63973224e+000,
          -1.49027526e+000, 6.86253846e-001, -7.92198598e-001,
          -2.90024590e+000, -2.13380432e+000, 3.59137625e-001,
          -2.65071702e+000, -1.35877275e+000, -2.28927898e+000,
          2.81996071e-001, -1.91538370e+000, 1.69640696e+000,
          -1.75806081e+000, 8.13147128e-001, -7.34971404e-001,
          1.75269365e+000, -5.44381738e-001, -3.99342328e-001,
          -1.15909958e+000, 1.25781810e+000, -8.14120293e-001,
          -1.49434483e+000, 4.69635613e-002, 5.62263131e-001,
          8.69454071e-002, -3.95188093e-001, 5.34913719e-001,
          -3.49809453e-002, -1.06807923e+000, -2.64961421e-001,
          1.22373486e+000, -1.53923595e+000, 1.41664910e+000,
          1.89997584e-001, 3.17388725e+000, -1.04094565e+000,
          -6.13174081e-001, -1.87943578e+000, -2.76294088e+000,
          1.08230841e+000, 1.08701527e+000, -7.20855176e-001,
          1.58239067e+000, 4.39451635e-001, 1.18124209e-001,
          -3.52099925e-001, -2.59160697e-001, 1.58436596e-001,
          -2.15280843e+000, 1.94697782e-001, -9.45136845e-001,
          -4.48216468e-001, -1.93699467e+000, -1.38814986e+000,
          1.77434993e+000, 2.33628702e+000, -1.88666213e+000,
          -1.00907898e+000, -4.58054870e-001, 1.47257590e+000,
          1.15719646e-001, -5.95779777e-001, 1.23647606e+000,
          -2.09447479e+000, -1.91569185e+000, -2.42658091e+000,
          -1.52979636e+000, -1.35370231e+000, 3.78222242e-002,
          7.90120900e-001, 5.56720793e-001, 3.70030761e-001,
          1.43796110e+000, 3.85538250e-001, 4.71489072e-001,
          1.50911844e+000, -4.99686271e-001, -1.90671694e+000,
          -1.48551956e-001, -7.11501479e-001, -1.66225505e+000,
          3.75632453e+000, -1.02899802e+000, 1.74790695e-001,
          6.24572456e-001, -4.12924349e-001, -3.92696261e-001,
          7.33809471e-001, -6.47854328e-001, -9.28632855e-001,
          -1.51464045e+000, 2.93458104e-001, 9.36655581e-001,
          7.12118030e-001, -3.87849718e-001, -1.32527733e+000,
          1.20015216e+000, -3.11564851e+000, -1.73733211e+000,
          5.55252969e-001, 3.29513836e+000, -1.78091191e-002,
          -2.30774832e+000, -1.93669367e+000, -2.59874511e+000,
          -3.53901625e-001, 7.76556015e-001, -9.07060921e-001,
          1.70907462e+000, 1.16033882e-001, 1.37504125e+000,
          -8.90879452e-001, 5.60829282e-001, -3.31163621e+000,
          8.26580763e-001, 3.45967174e+000, -2.20994949e+000,
          3.06751221e-001, -1.19776344e+000, -7.98615456e-001 ]
   uncompressed_sv_total: 351
   uncompressed_support_vectors:
      - [ 2.23227590e-001, 2.47108728e-001, 2.15970457e-001,
          2.09117889e-001, 2.18848392e-001, 1.26808122e-001,
          4.76626977e-002, 3.40792127e-002, 1.11554056e-001,
          2.47108728e-001, 2.47108728e-001, 2.26598904e-001,
          1.02976434e-001, 1.43848509e-001, 6.40269667e-002,
          3.01864743e-002, 7.79247507e-002, 1.10035799e-001,
          1.30078688e-001, 1.17639609e-001, 1.80818006e-001,
          2.47108728e-001, 1.99336991e-001, 1.66227490e-001,
          1.32273585e-001, 9.91940200e-002, 9.56302658e-002,
          2.47108728e-001, 2.47108728e-001, 1.76738292e-001,
          1.39966324e-001, 1.03984565e-001, 1.00463860e-001,
          1.04485720e-001, 1.34309784e-001, 1.93058759e-001,
          2.58453101e-001, 2.58453101e-001, 2.58453101e-001,
          9.21570584e-002, 8.83172378e-002, 9.43178684e-003,
          9.45079233e-003, 6.70292377e-002, 7.11293668e-002,
          2.58453101e-001, 2.58453101e-001, 2.58453101e-001,
          9.92484689e-002, 3.61783579e-002, 4.42314483e-002,
          6.87496215e-002, 1.40028268e-001, 1.31083906e-001,
          2.58453101e-001, 2.58453101e-001, 1.66431442e-001,
          4.95122559e-002, 3.05349622e-002, 2.98061445e-002,
          7.78422579e-002, 2.09096089e-001, 2.35351324e-001,
          1.61142960e-001, 1.56365886e-001, 1.60638645e-001,
          8.77461433e-002, 2.91743111e-002, 5.46245910e-002,
          1.61535114e-001, 2.58453101e-001, 2.54137665e-001,
          2.82264650e-001, 1.53684363e-001, 8.17558616e-002,
          3.65084857e-002, 3.95637006e-002, 8.34986717e-002,
          9.30227786e-002, 1.41490400e-001, 2.82264650e-001,
          2.82264650e-001, 1.03328258e-001, 4.37018424e-002,
          1.47717064e-002, 5.72544038e-002, 6.48074299e-002,
          5.38684912e-002, 1.80053592e-001, 2.82264650e-001,
          1.46856293e-001, 1.45173103e-001, 1.31446749e-001,
          7.24268034e-002, 9.06067565e-002, 1.56757697e-001,
          1.97078437e-001, 2.12107256e-001, 1.74714297e-001,
          2.50361055e-001, 2.82264650e-001, 1.68634400e-001,
          6.03760034e-002, 1.34850428e-001, 1.61466628e-001,
          1.52960241e-001, 1.41315743e-001, 2.82264650e-001,
          2.67812610e-001, 9.11289826e-002, 4.88213189e-002,
          2.34201606e-002, 3.94726507e-002, 1.28710121e-002,
          6.01159930e-002, 2.23997518e-001, 2.67812610e-001,
          2.46945828e-001, 1.29423618e-001, 8.54449496e-002,
          1.79287940e-002, 3.17554884e-002, 3.24112847e-002,
          1.33574322e-001, 2.13200644e-001, 2.67812610e-001,
          2.62145072e-001, 2.67812610e-001, 1.45312324e-001,
          7.17302263e-002, 8.41803923e-002, 5.32583073e-002,
          1.33974105e-001, 2.03309804e-001, 2.67812610e-001,
          1.84688210e-001, 1.56526327e-001, 8.53976160e-002,
          6.36133403e-002, 6.64565712e-002, 7.74150491e-002,
          1.82351395e-001, 2.67812610e-001, 2.67812610e-001,
          6.47438914e-002, 4.55177501e-002, 1.25214010e-001,
          1.86654881e-001, 2.53299654e-001, 2.53299654e-001,
          1.57716736e-001, 1.32370919e-001, 1.20842054e-001,
          2.53299654e-001, 1.16400287e-001, 1.42200157e-001,
          9.74694416e-002, 1.56296536e-001, 1.61456123e-001,
          1.57590702e-001, 2.12247789e-001, 2.33868182e-001,
          8.55218396e-002, 2.33965322e-001, 2.53299654e-001,
          1.04290038e-001, 1.67638227e-001, 2.10820302e-001,
          9.73555967e-002, 9.05685648e-002, 1.10919908e-001,
          2.53299654e-001, 2.53299654e-001, 2.53299654e-001,
          6.32749274e-002, 1.10441536e-001, 1.01008274e-001,
          6.69428334e-002, 4.73387763e-002, 8.73429179e-002,
          2.41887316e-001, 1.46493152e-001, 1.31018192e-001,
          6.35184720e-002, 6.11772798e-002, 7.18869492e-002,
          1.66685581e-001, 2.41887316e-001, 2.39485189e-001,
          1.92654505e-001, 1.72326863e-001, 2.22477987e-001,
          1.56229317e-001, 8.18442032e-002, 9.52400193e-002,
          1.71862483e-001, 2.41887316e-001, 2.14956075e-001,
          2.41887316e-001, 2.41887316e-001, 2.41887316e-001,
          6.93385378e-002, 4.84847873e-002, 3.70629281e-002,
          6.53249770e-002, 4.61270623e-002, 1.18656196e-001,
          2.41887316e-001, 2.41887316e-001, 2.41887316e-001,
          1.84210435e-001, 1.05088778e-001, 1.14811093e-001,
          7.03488588e-002, 5.05311675e-002, 8.59824419e-002,
          1.60204902e-001, 1.87084869e-001, 1.85147911e-001,
          1.22906931e-001, 1.04852036e-001, 1.47028610e-001,
          1.47578925e-001, 1.89454928e-001, 1.73195049e-001,
          2.15618923e-001, 2.15618923e-001, 2.01190993e-001,
          8.80116969e-002, 1.61699101e-001, 1.46633580e-001,
          2.10159242e-001, 1.49063334e-001, 2.15618923e-001,
          1.49443805e-001, 1.44140810e-001, 1.49410650e-001,
          1.50333643e-001, 1.31819576e-001, 1.95867598e-001,
          1.37896255e-001, 7.29078352e-002, 1.16960682e-001,
          1.72911584e-001, 1.04050584e-001, 1.85216770e-001,
          1.21871702e-001, 1.85435742e-001, 2.15618923e-001,
          2.15618923e-001, 1.42302513e-001, 2.15618923e-001,
          1.92264736e-001, 2.30974555e-001, 1.92736641e-001,
          9.10321325e-002, 1.20225243e-001, 6.01171702e-002,
          1.47067428e-001, 1.29248381e-001, 2.01587379e-001,
          1.40363604e-001, 2.30974555e-001, 2.30974555e-001,
          1.22312367e-001, 1.17965356e-001, 6.78488538e-002,
          1.31156042e-001, 2.09632680e-001, 2.30974555e-001,
          7.66604468e-002, 7.29617402e-002, 1.49542496e-001,
          1.18884385e-001, 2.30974555e-001, 1.95785433e-001,
          1.28850132e-001, 1.08606748e-001, 1.51373371e-001,
          8.02236199e-002, 1.60023540e-001, 2.07208097e-001,
          2.22160727e-001, 2.30974555e-001, 2.30974555e-001,
          1.01595797e-001, 1.60631016e-001, 1.80775464e-001,
          1.80292398e-001, 2.71659076e-001, 2.71659076e-001,
          6.34617209e-002, 2.58561950e-002, 3.35519612e-002,
          3.24904658e-002, 1.18871436e-001, 1.35274038e-001,
          2.71659076e-001, 2.71659076e-001, 2.71659076e-001,
          9.10468549e-002, 2.63678338e-002, 3.32074873e-002,
          3.05475164e-002, 1.80609301e-002, 9.95738730e-002,
          2.50277609e-001, 1.75871924e-001, 2.39058658e-001,
          8.90033171e-002, 4.49841172e-002, 3.92120183e-002,
          8.43139738e-002, 1.72551736e-001, 2.35272855e-001,
          1.18471369e-001, 2.14661002e-001, 2.71659076e-001,
          2.52932966e-001, 1.32736087e-001, 1.16092145e-001,
          1.45140365e-001, 1.43232718e-001, 1.01064064e-001,
          2.58226752e-001, 2.58226752e-001, 2.46259108e-001,
          6.49162531e-002, 1.27209788e-002, 2.39069443e-002,
          3.67693827e-002, 2.38682851e-002, 1.28893957e-001,
          2.31334537e-001, 2.58226752e-001, 1.60746455e-001,
          5.93392588e-002, 4.12218124e-002, 4.80856039e-002,
          5.01013435e-002, 1.02613084e-001, 1.26176164e-001,
          2.16085538e-001, 2.58226752e-001, 2.58226752e-001,
          1.79657251e-001, 8.65747929e-002, 7.09963664e-002,
          1.19378343e-001, 1.49753720e-001, 2.49774829e-001,
          2.58226752e-001, 2.58226752e-001, 1.86155379e-001,
          5.97115830e-002, 3.46034504e-002, 1.58645306e-002,
          6.02678582e-002, 1.73568666e-001, 2.58226752e-001,
          1.47192776e-001, 1.15045726e-001, 7.53815323e-002,
          6.03771619e-002, 7.46614784e-002, 8.71473327e-002,
          1.47331446e-001, 2.38975629e-001, 1.45119086e-001,
          1.38640597e-001, 1.69441342e-001, 1.72683984e-001,
          8.84974822e-002, 1.14174254e-001, 1.32267445e-001,
          1.53144896e-001, 1.82076156e-001, 1.18248314e-001,
          2.38975629e-001, 2.24750549e-001, 1.27576560e-001,
          3.57488655e-002, 9.10662785e-002, 4.76196818e-002,
          1.62119374e-001, 2.38975629e-001, 2.38975629e-001,
          2.38975629e-001, 2.38975629e-001, 2.16447383e-001,
          1.41554445e-001, 2.36961856e-001, 1.12218484e-001,
          1.93051621e-001, 2.38975629e-001, 1.82128578e-001,
          7.36221746e-002, 9.20859650e-002, 1.36469737e-001,
          1.26814380e-001, 2.08418131e-001, 1.86662897e-001,
          1.03804201e-001, 9.78345722e-002, 6.58279136e-002,
          1.07878037e-001, 6.26164153e-002, 6.02356642e-002,
          2.40996748e-001, 2.40996748e-001, 2.38756776e-001,
          1.31672874e-001, 1.89266667e-001, 1.41519204e-001,
          1.32394031e-001, 1.69771895e-001, 1.65561005e-001,
          2.40996748e-001, 2.40996748e-001, 1.16751932e-001,
          1.21237427e-001, 1.62538603e-001, 8.80848840e-002,
          1.84052512e-001, 6.39545694e-002, 1.12472616e-001,
          2.40996748e-001, 2.40996748e-001, 1.44361958e-001,
          1.95530713e-001, 2.40996748e-001, 2.10077494e-001,
          1.50001690e-001, 5.35593480e-002, 6.88385963e-002,
          3.18408608e-002, 8.72108638e-002, 1.06070071e-001,
          2.04691499e-001, 2.56976366e-001, 2.56976366e-001,
          1.09323546e-001, 6.02783486e-002, 1.28608361e-001,
          1.19935334e-001, 1.16298854e-001, 1.43827796e-001,
          2.56976366e-001, 2.56976366e-001, 2.42108896e-001,
          6.25772104e-002, 5.23119271e-002, 4.84804884e-002,
          1.03334868e-002, 1.48581773e-001, 1.61048308e-001,
          2.56976366e-001, 2.56976366e-001, 1.59404233e-001,
          1.82326272e-001, 4.29777354e-002, 4.63710055e-002,
          6.75292835e-002, 1.57815307e-001, 1.50967062e-001,
          2.56976366e-001, 2.56976366e-001, 2.56695151e-001,
          2.07924977e-001, 5.96547835e-002, 7.87880197e-002,
          6.60954863e-002, 4.64835055e-002, 4.79364656e-002,
          1.08754992e-001, 2.18597397e-001, 3.40493083e-001,
          3.40493083e-001, 9.51720625e-002, 5.46983592e-002,
          2.41788849e-002, 1.31480219e-002, 2.68236850e-003,
          2.35610157e-002, 9.65812877e-002, 3.40493083e-001,
          3.01766515e-001, 3.47609445e-002, 4.32145484e-002,
          4.77602445e-002, 6.62285760e-002, 3.10512483e-002,
          6.21363334e-002, 1.32894278e-001, 3.40493083e-001,
          3.40493083e-001, 3.60358544e-002, 2.13495996e-002,
          1.57020651e-002, 2.35630404e-002, 2.74116755e-003,
          1.18143745e-002, 1.75651029e-001, 3.40493083e-001,
          2.79099137e-001, 1.70768946e-001, 7.82153383e-002,
          2.02692486e-002, 4.15661633e-002, 1.68044139e-002,
          3.41362879e-002, 9.61793438e-002, 2.79099137e-001,
          2.79099137e-001, 2.37675607e-001, 1.58104241e-001,
          1.61491215e-001, 1.37797832e-001, 4.88789305e-002,
          7.26896450e-002, 1.43685862e-001, 2.67088979e-001,
          2.79099137e-001, 1.24027506e-001, 4.05625775e-002,
          4.19065580e-002, 2.47929841e-002, 7.91501999e-003,
          3.91745158e-002, 1.75931454e-001, 2.79099137e-001,
          2.79099137e-001, 1.77397132e-001, 8.94146562e-002,
          9.68613550e-002, 3.98532860e-002, 1.42098591e-002,
          1.35650635e-001, 2.37959012e-001, 2.79099137e-001,
          1.12767778e-001, 1.26535699e-001, 1.20285019e-001,
          2.30374262e-001, 2.30374262e-001, 8.36483538e-002,
          8.90786201e-002, 9.89910737e-002, 1.05140269e-001,
          9.41419303e-002, 5.10750934e-002, 1.30010873e-001,
          2.30374262e-001, 2.30374262e-001, 2.01737404e-001,
          1.42746896e-001, 1.35703355e-001, 1.06097452e-001,
          1.88755393e-001, 1.16821401e-001, 1.02326512e-001,
          1.28266543e-001, 1.04830593e-001, 1.25495031e-001,
          2.20903948e-001, 2.17138171e-001, 2.18668625e-001,
          2.30374262e-001, 2.18450755e-001, 8.63772705e-002,
          1.52636245e-001, 2.30374262e-001, 2.30374262e-001,
          2.30374262e-001, 1.29690036e-001, 1.81703955e-001 ]
      - [ 2.25152299e-001, 2.51429737e-001, 2.51429737e-001,
          2.51429737e-001, 1.51048556e-001, 2.32138522e-002,
          4.03365493e-003, 3.30129080e-002, 4.08243127e-002,
          2.51429737e-001, 2.51429737e-001, 2.51429737e-001,
          1.56872198e-001, 5.01741655e-002, 1.99572351e-002,
          1.61019042e-002, 4.97615933e-002, 7.87055269e-002,
          1.03819691e-001, 1.75750494e-001, 2.43731678e-001,
          2.51429737e-001, 2.50078797e-001, 1.75156906e-001,
          3.48965675e-002, 2.51186676e-002, 3.68279777e-002,
          2.51429737e-001, 2.51429737e-001, 2.51429737e-001,
          1.58533320e-001, 9.66641083e-002, 1.05050854e-001,
          3.37067917e-002, 4.25159596e-002, 7.80390725e-002,
          2.72484273e-001, 2.72484273e-001, 2.46104360e-001,
          1.03251576e-001, 2.02133376e-002, 4.56076451e-002,
          3.10439449e-002, 3.91369015e-002, 2.04421803e-001,
          2.72484273e-001, 1.40666232e-001, 6.61989003e-002,
          4.66410257e-002, 2.30346471e-002, 5.73330969e-002,
          5.45356348e-002, 3.90698947e-002, 2.72484273e-001,
          2.72484273e-001, 2.28443205e-001, 1.65085241e-001,
          1.39260516e-001, 7.52853528e-002, 1.48303628e-001,
          1.01506770e-001, 8.00293460e-002, 1.56741679e-001,
          2.72484273e-001, 1.39644146e-001, 5.55415675e-002,
          1.21225640e-001, 1.15470469e-001, 2.72484273e-001,
          2.36080527e-001, 9.26180631e-002, 2.05383226e-001,
          2.87137151e-001, 7.97195435e-002, 1.28202839e-002,
          1.68770030e-002, 3.16556543e-002, 2.66805273e-002,
          3.18272412e-002, 8.49356428e-002, 2.87137151e-001,
          2.87137151e-001, 1.08547166e-001, 3.32724117e-002,
          2.88783554e-002, 9.67241749e-002, 4.73390929e-002,
          6.80628493e-002, 2.18879417e-001, 2.87137151e-001,
          2.87137151e-001, 1.73556119e-001, 4.55767997e-002,
          6.76859394e-002, 1.14141449e-001, 1.82617247e-001,
          1.60739109e-001, 7.38865286e-002, 2.28502214e-001,
          2.87137151e-001, 1.46362260e-001, 1.06615499e-001,
          1.17616273e-001, 1.69732586e-001, 1.74689591e-001,
          1.44049332e-001, 1.96422458e-001, 2.75482982e-001,
          2.35995278e-001, 8.69588703e-002, 5.24476543e-002,
          7.69858807e-002, 1.64608955e-001, 7.37184808e-002,
          1.19364046e-001, 2.35995278e-001, 2.35995278e-001,
          8.42924789e-002, 2.90173069e-002, 3.49692255e-002,
          7.34866038e-002, 2.03439236e-001, 2.35995278e-001,
          2.35995278e-001, 2.35995278e-001, 2.35995278e-001,
          1.36453897e-001, 5.73458150e-002, 1.41421244e-001,
          2.35995278e-001, 2.15644673e-001, 1.64600596e-001,
          1.12492777e-001, 1.88927561e-001, 1.69480681e-001,
          7.57444724e-002, 3.27786654e-002, 1.10938542e-001,
          2.35995278e-001, 2.35995278e-001, 2.35995278e-001,
          1.26793370e-001, 1.36182114e-001, 1.40417323e-001,
          7.23725930e-002, 8.65178257e-002, 1.35090649e-001,
          2.43070051e-001, 2.43070051e-001, 2.43070051e-001,
          1.06959336e-001, 4.00287434e-002, 4.67065424e-002,
          2.43070051e-001, 2.43070051e-001, 2.27274731e-001,
          1.84688359e-001, 1.25997290e-001, 2.21662983e-001,
          9.40197632e-002, 6.52616248e-002, 1.07999556e-001,
          1.23206280e-001, 1.70894921e-001, 1.52233973e-001,
          2.43070051e-001, 1.88862249e-001, 2.10951418e-001,
          1.18318029e-001, 7.12874383e-002, 7.64086172e-002,
          2.43070051e-001, 2.43070051e-001, 2.43070051e-001,
          1.37748927e-001, 6.20442331e-002, 1.23045340e-001,
          7.87003264e-002, 8.75990689e-002, 1.40035540e-001,
          2.33594656e-001, 1.84324816e-001, 1.12860970e-001,
          9.41863209e-002, 1.07322037e-001, 2.11561501e-001,
          1.40845552e-001, 7.75651187e-002, 1.42265290e-001,
          1.02208614e-001, 9.28550959e-002, 4.78496663e-002,
          1.05123632e-001, 2.07623258e-001, 2.33594656e-001,
          2.33594656e-001, 1.21143967e-001, 1.35881543e-001,
          2.33594656e-001, 2.33594656e-001, 1.76426411e-001,
          7.32356906e-002, 1.03910431e-001, 1.58642262e-001,
          8.90018791e-002, 6.70965835e-002, 2.00006798e-001,
          1.40352592e-001, 2.11201444e-001, 2.04025224e-001,
          2.30104476e-001, 2.33594656e-001, 2.33594656e-001,
          1.72919720e-001, 1.13172166e-001, 1.50402829e-001,
          1.19140640e-001, 1.42322972e-001, 7.22704083e-002,
          8.57916698e-002, 1.67915404e-001, 2.22104535e-001,
          2.22104535e-001, 1.47168875e-001, 7.62552023e-002,
          1.66237950e-001, 2.22104535e-001, 2.21483320e-001,
          1.38206959e-001, 1.57653660e-001, 1.70437947e-001,
          1.79177895e-001, 1.60362333e-001, 8.98898467e-002,
          1.08376980e-001, 1.77315548e-001, 1.72716558e-001,
          2.22104535e-001, 2.18558341e-001, 1.21635772e-001,
          1.96581483e-001, 2.02642068e-001, 7.03224465e-002,
          1.73301503e-001, 2.22104535e-001, 2.21120641e-001,
          1.16321489e-001, 1.34892419e-001, 6.91991821e-002,
          1.89052105e-001, 2.11663082e-001, 1.28883913e-001,
          7.43674263e-002, 1.37385637e-001, 2.16220438e-001,
          2.36849785e-001, 2.20304906e-001, 1.52923435e-001,
          7.04397559e-002, 1.07410848e-001, 1.22469999e-001,
          3.62327471e-002, 4.60196100e-002, 2.17406005e-001,
          2.36849785e-001, 2.36849785e-001, 2.28922531e-001,
          6.96403459e-002, 8.31676424e-002, 1.11220345e-001,
          9.78886336e-002, 2.36849785e-001, 2.07659706e-001,
          2.26282269e-001, 2.36849785e-001, 1.34567231e-001,
          7.65950009e-002, 1.15450434e-001, 1.71798602e-001,
          3.26651447e-002, 6.60580993e-002, 1.88687384e-001,
          2.36849785e-001, 2.36849785e-001, 2.27770954e-001,
          1.19852096e-001, 1.17509313e-001, 1.06406972e-001,
          9.63432044e-002, 2.28939459e-001, 1.99975103e-001,
          1.74571007e-001, 1.09825410e-001, 1.25502869e-001,
          1.35682389e-001, 6.50220141e-002, 5.88236116e-002,
          2.37958416e-001, 2.37958416e-001, 2.37958416e-001,
          9.12971199e-002, 4.28715013e-002, 8.06833506e-002,
          4.52029817e-002, 8.42028782e-002, 1.45275190e-001,
          7.98859000e-002, 2.07430005e-001, 2.37958416e-001,
          1.93790391e-001, 1.22827031e-001, 2.37958416e-001,
          2.37958416e-001, 9.45591629e-002, 6.78145811e-002,
          1.93630129e-001, 2.37958416e-001, 2.37958416e-001,
          1.82321861e-001, 6.15026392e-002, 1.79818258e-001,
          1.80755287e-001, 1.58188388e-001, 1.77478537e-001,
          2.45802209e-001, 2.45802209e-001, 1.28123656e-001,
          3.92929949e-002, 5.95562346e-002, 1.10396057e-001,
          1.02068536e-001, 9.56853330e-002, 2.40045965e-001,
          2.05494106e-001, 2.45802209e-001, 1.52164444e-001,
          1.64294928e-001, 1.58319354e-001, 1.28029227e-001,
          1.81758523e-001, 1.35641769e-001, 1.72233403e-001,
          2.45802209e-001, 2.45802209e-001, 7.98369721e-002,
          6.17023446e-002, 5.06261513e-002, 9.41409990e-002,
          1.56963155e-001, 1.53408408e-001, 2.45802209e-001,
          2.45802209e-001, 1.65194497e-001, 3.98023091e-002,
          3.82988416e-002, 4.23642658e-002, 6.45253435e-002,
          1.82245836e-001, 2.21547931e-001, 2.45802209e-001,
          1.22543424e-001, 1.42292559e-001, 1.37849644e-001,
          2.09495097e-001, 2.08212808e-001, 6.46986961e-002,
          1.40612945e-001, 1.72573075e-001, 8.24253187e-002,
          8.50220174e-002, 2.15079531e-001, 1.67181686e-001,
          1.64999753e-001, 1.47992849e-001, 3.84421200e-002,
          1.30955443e-001, 2.08004430e-001, 2.18746796e-001,
          2.42837578e-001, 1.35057434e-001, 8.74589682e-002,
          9.93640870e-002, 8.53335634e-002, 4.12577949e-002,
          1.42559469e-001, 2.47389108e-001, 2.47389108e-001,
          5.38302362e-002, 1.25930637e-001, 1.47508800e-001,
          1.85216933e-001, 2.14077011e-001, 1.83776751e-001,
          1.78635672e-001, 2.47389108e-001, 2.47389108e-001,
          5.46579063e-002, 1.69278085e-001, 1.44711122e-001,
          1.75319135e-001, 2.00258806e-001, 1.11265980e-001,
          1.05523199e-001, 1.72261968e-001, 2.25582048e-001,
          4.31683287e-002, 1.03149824e-001, 1.30641341e-001,
          1.86840370e-001, 2.38984257e-001, 2.38984257e-001,
          1.50734499e-001, 1.10706136e-001, 6.68974519e-002,
          3.32986750e-002, 8.00840557e-002, 8.52488354e-002,
          1.25872388e-001, 2.38984257e-001, 2.38984257e-001,
          2.22467050e-001, 2.24644855e-001, 2.38984257e-001,
          4.99251857e-002, 1.10167474e-001, 1.34170666e-001,
          1.51267633e-001, 2.38984257e-001, 2.38984257e-001,
          2.38984257e-001, 1.39998615e-001, 5.97316101e-002,
          6.04115836e-002, 9.55756679e-002, 1.91425890e-001,
          1.27485842e-001, 1.81191921e-001, 2.49063611e-001,
          2.49063611e-001, 1.00805156e-001, 8.29677731e-002,
          1.19012490e-001, 2.02502668e-001, 1.99539289e-001,
          1.72303125e-001, 1.06534414e-001, 2.49063611e-001,
          2.49063611e-001, 1.37860224e-001, 1.36049375e-001,
          4.48615439e-002, 1.04287885e-001, 9.86857414e-002,
          1.22812383e-001, 2.49063611e-001, 2.49063611e-001,
          2.49063611e-001, 1.25490218e-001, 8.44931304e-002,
          7.36263320e-002, 1.03771485e-001, 1.27653956e-001,
          1.26989305e-001, 2.45198578e-001, 2.49063611e-001,
          1.59229741e-001, 7.61661455e-002, 1.08012237e-001,
          2.46042758e-001, 2.24489659e-001, 8.84065107e-002,
          6.52311668e-002, 3.44153047e-002, 9.45548117e-002,
          1.63798720e-001, 1.76902145e-001, 2.46042758e-001,
          2.46042758e-001, 2.14286491e-001, 2.99271122e-002,
          1.42986588e-002, 5.28293848e-003, 4.36033979e-002,
          1.11579984e-001, 2.46042758e-001, 2.46042758e-001,
          1.27519250e-001, 1.23207554e-001, 5.62885590e-002,
          6.71420246e-002, 1.28562480e-001, 2.23928288e-001,
          1.77056924e-001, 1.84082583e-001, 1.70425653e-001,
          2.46042758e-001, 2.46042758e-001, 5.60169667e-002,
          5.49084768e-002, 4.21440601e-002, 1.43602237e-001,
          1.78809822e-001, 2.46042758e-001, 2.46042758e-001,
          2.31482789e-001, 2.38026902e-001, 6.42001033e-002,
          3.32026966e-002, 1.50549468e-002, 1.99120957e-002,
          8.93954337e-002, 2.27655008e-001, 2.38026902e-001,
          6.54631704e-002, 1.80416405e-001, 9.35053602e-002,
          1.94796667e-001, 2.38026902e-001, 2.32503638e-001,
          1.41848877e-001, 2.35320017e-001, 2.19148472e-001,
          2.38026902e-001, 2.38026902e-001, 1.29836783e-001,
          6.27977103e-002, 2.63837576e-002, 4.53859232e-002,
          6.63257465e-002, 8.00396577e-002, 1.23931244e-001,
          2.38026902e-001, 2.38026902e-001, 1.68037981e-001,
          2.38026902e-001, 2.38026902e-001, 1.42278239e-001,
          6.76676929e-002, 5.26554473e-002, 4.24501412e-002,
          2.12440509e-002, 3.62767093e-002, 6.17586784e-002,
          2.38098994e-001, 2.61037707e-001, 2.61037707e-001,
          1.41980693e-001, 9.27443579e-002, 7.23551586e-002,
          3.22431475e-002, 3.93977314e-002, 1.23486921e-001,
          2.61037707e-001, 2.61037707e-001, 1.58011302e-001,
          2.03123227e-001, 1.16838679e-001, 4.13054191e-002,
          1.69583559e-001, 1.05887748e-001, 1.66018695e-001,
          2.61037707e-001, 2.61037707e-001, 1.60595104e-001,
          6.64977804e-002, 4.91333567e-002, 3.20652351e-002,
          1.60499439e-001, 2.12251440e-001, 2.61037707e-001,
          2.61037707e-001, 2.61037707e-001, 9.53207389e-002,
          6.45487458e-002, 4.62118872e-002, 3.23344655e-002 ]
      - [ 2.31583878e-001, 2.52755344e-001, 2.52755344e-001,
          2.52755344e-001, 2.07395256e-001, 1.06983092e-002,
          1.20450677e-002, 4.93907323e-003, 8.20451453e-002,
          2.52755344e-001, 2.52755344e-001, 2.52755344e-001,
          1.80356279e-001, 1.47790685e-001, 3.01961228e-002,
          3.85624841e-002, 2.68369429e-002, 1.75360337e-001,
          9.97671708e-002, 2.09489211e-001, 2.52755344e-001,
          2.52755344e-001, 1.17700137e-001, 3.54667306e-002,
          1.70571730e-002, 2.28594784e-002, 8.96118581e-002,
          1.86213955e-001, 2.52755344e-001, 2.52755344e-001,
          1.54436633e-001, 6.72013909e-002, 4.06101979e-002,
          4.63448353e-002, 6.49562478e-002, 1.33672789e-001,
          2.94775128e-001, 2.38115817e-001, 1.34434849e-001,
          5.84634542e-002, 7.39696994e-002, 3.94120365e-002,
          4.28215563e-002, 3.85873206e-002, 1.84457973e-001,
          2.94775128e-001, 2.93053746e-001, 1.01265296e-001,
          5.11859134e-002, 5.31388447e-002, 3.43904532e-002,
          4.45901752e-002, 3.89730111e-002, 1.78526670e-001,
          2.94775128e-001, 2.70676136e-001, 1.42495334e-001,
          4.13974896e-002, 5.85710220e-002, 6.73226416e-002,
          7.83856064e-002, 1.00342266e-001, 2.18897983e-001,
          2.94775128e-001, 2.62498677e-001, 7.78189003e-002,
          4.82674837e-002, 1.67995572e-001, 1.78590044e-001,
          1.17962696e-001, 9.38269719e-002, 2.47546598e-001,
          2.33196363e-001, 2.33196363e-001, 1.35834500e-001,
          7.76334330e-002, 1.56622186e-001, 7.87292719e-002,
          9.35411230e-002, 3.25215571e-002, 2.02259213e-001,
          1.34821922e-001, 1.09004222e-001, 1.17782213e-001,
          1.44136459e-001, 2.33196363e-001, 1.53768644e-001,
          1.13243572e-001, 6.35375455e-002, 1.32261291e-001,
          2.33196363e-001, 2.33196363e-001, 1.59151644e-001,
          1.20702550e-001, 2.33196363e-001, 1.73042178e-001,
          1.32874086e-001, 6.40764832e-002, 1.81169450e-001,
          1.89739063e-001, 2.33196363e-001, 1.62251145e-001,
          1.28875360e-001, 2.25760147e-001, 1.53234050e-001,
          1.36709347e-001, 1.93642929e-001, 2.33196363e-001,
          4.31790650e-002, 7.27870688e-002, 9.92256254e-002,
          1.93884075e-001, 2.40358382e-001, 1.78996012e-001,
          1.11755401e-001, 1.36769637e-001, 8.44874457e-002,
          1.36422008e-001, 7.95144811e-002, 1.07102521e-001,
          2.23597497e-001, 2.40358382e-001, 2.05231145e-001,
          2.40358382e-001, 2.40358382e-001, 1.97277039e-001,
          1.31359011e-001, 1.63507268e-001, 1.22271977e-001,
          1.73324674e-001, 2.40358382e-001, 2.08275631e-001,
          8.82874280e-002, 1.69718027e-001, 1.59244761e-001,
          9.06782895e-002, 1.22674510e-001, 1.44331858e-001,
          2.40358382e-001, 2.40358382e-001, 2.27143675e-001,
          5.98489009e-002, 6.39868304e-002, 5.55922501e-002,
          6.93911165e-002, 1.12494588e-001, 2.01165393e-001,
          2.31300578e-001, 2.29600266e-001, 1.37728944e-001,
          8.14314559e-002, 6.23027943e-002, 1.66523442e-001,
          2.24619165e-001, 2.31300578e-001, 2.31300578e-001,
          1.52834684e-001, 1.09474659e-001, 1.33620456e-001,
          9.79452729e-002, 1.27454102e-001, 2.31300578e-001,
          9.14115012e-002, 1.86340019e-001, 1.35812134e-001,
          1.64348409e-001, 2.31300578e-001, 1.87687099e-001,
          7.53736570e-002, 7.22193047e-002, 6.05320372e-002,
          2.31300578e-001, 2.31300578e-001, 2.23940477e-001,
          1.09422661e-001, 1.52544603e-001, 1.54051676e-001,
          9.45806876e-002, 1.30531907e-001, 2.28918180e-001,
          2.36070350e-001, 2.34443650e-001, 1.30520090e-001,
          8.01997557e-002, 7.41654262e-002, 1.45137563e-001,
          1.14269815e-001, 1.30274400e-001, 2.36070350e-001,
          1.95373103e-001, 1.25661761e-001, 7.56151229e-002,
          1.17465556e-001, 2.36070350e-001, 2.36070350e-001,
          2.04326361e-001, 1.05786964e-001, 1.70215428e-001,
          2.36070350e-001, 2.36070350e-001, 1.45855770e-001,
          7.34960809e-002, 7.77430609e-002, 1.17123432e-001,
          7.91049227e-002, 1.09922662e-001, 2.36070350e-001,
          1.71851322e-001, 1.53720587e-001, 1.07696958e-001,
          1.45386621e-001, 2.36070350e-001, 1.95488527e-001,
          9.50588137e-002, 8.79352540e-002, 2.36070350e-001,
          1.82866946e-001, 1.83124751e-001, 1.02324434e-001,
          1.29324630e-001, 2.43258119e-001, 2.43258119e-001,
          1.62212700e-001, 8.01496804e-002, 1.17261417e-001,
          2.43258119e-001, 2.43258119e-001, 1.66510150e-001,
          9.98861641e-002, 8.57539475e-002, 1.02615669e-001,
          9.11567807e-002, 1.66743010e-001, 2.43258119e-001,
          1.20512977e-001, 1.02490060e-001, 1.31275684e-001,
          1.47837400e-001, 1.82249308e-001, 1.82416901e-001,
          1.15969256e-001, 1.01544186e-001, 1.06502764e-001,
          2.43258119e-001, 2.43258119e-001, 1.82731315e-001,
          1.37145042e-001, 7.10455030e-002, 1.47237942e-001,
          1.62328064e-001, 1.44323409e-001, 2.43258119e-001,
          2.38809586e-001, 2.38809586e-001, 1.93667188e-001,
          2.07342550e-001, 1.19197153e-001, 7.52049834e-002,
          2.16630325e-002, 8.84325355e-002, 1.49072587e-001,
          9.45885926e-002, 2.25242928e-001, 2.38809586e-001,
          2.38809586e-001, 2.38809586e-001, 8.51672739e-002,
          9.14414972e-003, 1.30463634e-002, 3.05061303e-002,
          2.38809586e-001, 2.02167124e-001, 2.38809586e-001,
          2.38809586e-001, 5.66144176e-002, 8.63606557e-002,
          9.65287015e-002, 1.41884059e-001, 1.99984968e-001,
          8.26667920e-002, 1.95287615e-001, 2.38809586e-001,
          2.38809586e-001, 9.25201252e-002, 9.46809053e-002,
          1.16667137e-001, 1.56373128e-001, 8.23576599e-002,
          1.27624571e-001, 2.24429309e-001, 1.77501753e-001,
          1.29282504e-001, 2.48086080e-001, 9.92436036e-002,
          6.79901913e-002, 8.96233469e-002, 4.90673706e-002,
          2.48086080e-001, 2.48086080e-001, 2.48086080e-001,
          6.63688257e-002, 1.18301436e-001, 7.63850510e-002,
          3.77256498e-002, 1.09001778e-001, 1.52571082e-001,
          8.34469944e-002, 1.12112783e-001, 1.38522029e-001,
          1.90447301e-001, 2.48086080e-001, 2.13263944e-001,
          1.64045841e-001, 6.24230355e-002, 5.99998906e-002,
          2.00205594e-001, 2.48086080e-001, 2.48086080e-001,
          1.71890110e-001, 2.15898380e-001, 1.80073500e-001,
          1.42351031e-001, 1.61445498e-001, 1.27323657e-001,
          2.42828831e-001, 2.75042355e-001, 1.74884588e-001,
          2.45059989e-002, 8.46984312e-002, 6.13677390e-002,
          3.73588167e-002, 7.59255663e-002, 2.28148356e-001,
          1.93235457e-001, 1.35352656e-001, 7.86060914e-002,
          4.37304601e-002, 1.02887355e-001, 4.76627238e-002,
          4.75393198e-002, 1.06951080e-001, 2.75042355e-001,
          2.75042355e-001, 2.75042355e-001, 2.75042355e-001,
          8.46987665e-002, 5.30398861e-002, 7.56622106e-002,
          1.22975029e-001, 1.63689181e-001, 2.75042355e-001,
          2.75042355e-001, 1.98779896e-001, 7.59938583e-002,
          1.81766711e-002, 3.86988148e-002, 2.55454443e-002,
          6.70104697e-002, 1.77668765e-001, 2.75042355e-001,
          1.01385355e-001, 5.11108413e-002, 1.00393526e-001,
          7.57892579e-002, 6.33016154e-002, 4.34470177e-002,
          6.17538914e-002, 1.69835031e-001, 2.85955697e-001,
          1.30566463e-001, 7.50041828e-002, 9.62139294e-002,
          9.38480273e-002, 4.38464358e-002, 8.39996710e-002,
          1.56638533e-001, 2.85955697e-001, 2.85955697e-001,
          2.85955697e-001, 1.58738673e-001, 2.77434904e-002,
          2.50431448e-002, 2.07304042e-002, 2.19106115e-002,
          6.70782328e-002, 2.71981686e-001, 2.85955697e-001,
          2.31135771e-001, 2.00743780e-001, 1.02078281e-001,
          8.67319107e-002, 5.59575185e-002, 1.15517318e-001,
          2.21611887e-001, 2.85955697e-001, 2.85955697e-001,
          1.17737263e-001, 7.78670013e-002, 9.52628553e-002,
          1.24871656e-001, 6.96742535e-002, 1.37554526e-001,
          1.70214370e-001, 2.40830421e-001, 2.40830421e-001,
          4.87397574e-002, 5.79439588e-002, 1.03102840e-001,
          1.55733332e-001, 1.53760135e-001, 2.40830421e-001,
          2.36503422e-001, 2.40830421e-001, 1.55644029e-001,
          7.08072558e-002, 1.19281188e-001, 8.02469701e-002,
          1.45483956e-001, 1.98944956e-001, 1.83684155e-001,
          2.26039827e-001, 2.40830421e-001, 2.02596769e-001,
          4.29876633e-002, 3.95354666e-002, 2.85810381e-002,
          2.19186544e-001, 2.40830421e-001, 2.40830421e-001,
          2.26075560e-001, 1.56993136e-001, 9.74990278e-002,
          6.84510469e-002, 5.69160916e-002, 7.76940137e-002,
          1.89899802e-001, 2.35629395e-001, 2.35629395e-001,
          1.90277979e-001, 6.20020628e-002, 8.23800787e-002,
          1.87840417e-001, 1.71641812e-001, 1.63042784e-001,
          1.42891824e-001, 1.53698102e-001, 1.71721905e-001,
          1.95531532e-001, 2.34550983e-001, 1.59572780e-001,
          1.31812647e-001, 9.80444103e-002, 6.31235763e-002,
          9.94371921e-002, 2.02243209e-001, 1.87624425e-001,
          2.35629395e-001, 2.35629395e-001, 2.35629395e-001,
          2.35629395e-001, 1.44956589e-001, 5.76528907e-002,
          4.17031199e-002, 1.17336728e-001, 1.03124335e-001,
          1.10019766e-001, 2.21409112e-001, 2.35629395e-001,
          2.87595838e-001, 1.83096811e-001, 1.51355341e-001,
          7.20632970e-002, 2.23350506e-002, 5.98191433e-002,
          1.52289063e-001, 2.83815920e-001, 2.87595838e-001,
          2.87595838e-001, 1.40490726e-001, 4.90891710e-002,
          1.71352159e-002, 5.00094192e-003, 2.10336912e-002,
          6.96128383e-002, 2.38344669e-001, 2.87595838e-001,
          2.41824374e-001, 1.13489799e-001, 7.76761249e-002,
          2.16777045e-002, 7.96599984e-002, 7.06718713e-002,
          5.45412675e-002, 1.34480238e-001, 2.87595838e-001,
          2.87595838e-001, 7.80303255e-002, 6.81438223e-002,
          2.68496163e-002, 2.58408338e-002, 4.73782830e-002,
          7.83284903e-002, 1.82685703e-001, 2.87595838e-001,
          2.80970305e-001, 2.15002492e-001, 1.80247780e-002,
          7.48269819e-003, 7.65350240e-004, 1.39216213e-002,
          4.49465849e-002, 1.76270679e-001, 2.80970305e-001,
          2.80970305e-001, 2.80970305e-001, 1.66592121e-001,
          6.55221269e-002, 3.79908308e-002, 6.89551011e-002,
          1.10092163e-001, 1.99126229e-001, 2.80970305e-001,
          2.80970305e-001, 8.01116750e-002, 2.93063987e-002,
          8.62895977e-003, 1.03067188e-002, 1.67223364e-002,
          4.57511172e-002, 1.62697166e-001, 2.80970305e-001,
          2.76461929e-001, 1.49355948e-001, 8.01094547e-002,
          1.09899547e-002, 3.64066772e-002, 8.37776531e-003,
          4.42190692e-002, 2.25390658e-001, 2.80970305e-001,
          8.07570592e-002, 1.98576614e-001, 1.27738133e-001,
          1.18645571e-001, 1.94447488e-001, 1.23194732e-001,
          1.72933415e-001, 1.29231513e-001, 2.00659662e-001,
          1.39219224e-001, 9.77752507e-002, 5.40645011e-002,
          2.19760373e-001, 2.46890947e-001, 2.11429775e-001,
          1.70049101e-001, 4.93701883e-002, 1.25263974e-001,
          2.46890947e-001, 1.33878276e-001, 9.22865570e-002,
          5.49147651e-002, 1.36964247e-001, 4.33958992e-002,
          9.50219110e-002, 1.59841388e-001, 2.46890947e-001,
          2.46890947e-001, 2.46890947e-001, 2.08401293e-001,
          2.19374612e-001, 2.46890947e-001, 9.21254978e-002,
          1.05302401e-001, 4.13548686e-002, 2.14871317e-001 ]
      - [ 2.18503326e-001, 2.61489034e-001, 2.61489034e-001,
          2.32921958e-001, 6.94937408e-002, 3.54378745e-002,
          4.53126058e-002, 1.83847230e-002, 3.45174335e-002,
          2.61489034e-001, 2.61489034e-001, 2.61489034e-001,
          2.39686072e-001, 1.12508051e-001, 8.32367837e-002,
          8.79524127e-002, 7.48740509e-002, 4.01600488e-002,
          2.57947475e-001, 2.61489034e-001, 1.96113393e-001,
          6.99832067e-002, 2.79823150e-002, 5.44384010e-002,
          2.59621181e-002, 6.10823780e-002, 1.32731929e-001,
          2.61489034e-001, 2.61489034e-001, 2.61489034e-001,
          1.71361014e-001, 6.26282245e-002, 5.50479963e-002,
          2.22117063e-002, 2.29525529e-002, 7.30880499e-002,
          1.72307774e-001, 1.51948407e-001, 2.43300870e-001,
          2.13448092e-001, 1.85412720e-001, 1.78850532e-001,
          1.48175374e-001, 1.59064487e-001, 6.04863130e-002,
          1.04255676e-001, 1.30602702e-001, 1.88122749e-001,
          1.60690159e-001, 2.02057570e-001, 2.26155192e-001,
          1.64431214e-001, 9.28147808e-002, 6.76066577e-002,
          2.43300870e-001, 2.43300870e-001, 2.43300870e-001,
          1.96324497e-001, 1.53418258e-001, 1.08607844e-001,
          6.67670742e-002, 6.55300245e-002, 1.03107207e-001,
          9.51949358e-002, 9.25495252e-002, 1.87332675e-001,
          2.00503245e-001, 2.43300870e-001, 2.43300870e-001,
          1.10827953e-001, 5.76947741e-002, 6.04101829e-002,
          1.38382018e-001, 1.61087334e-001, 1.69044197e-001,
          1.87869161e-001, 2.26973400e-001, 2.08532125e-001,
          1.41802520e-001, 5.61134517e-002, 9.18362513e-002,
          2.40081474e-001, 1.30909160e-001, 8.04596022e-002,
          1.32265657e-001, 2.02747643e-001, 1.43284202e-001,
          1.11200884e-001, 2.01722786e-001, 2.27339566e-001,
          5.38859144e-002, 3.96768823e-002, 8.55166763e-002,
          2.11194217e-001, 2.40081474e-001, 2.40081474e-001,
          2.10898787e-001, 9.94444340e-002, 3.55339088e-002,
          1.27290353e-001, 1.08876534e-001, 5.60854152e-002,
          1.66620284e-001, 2.40081474e-001, 2.40081474e-001,
          2.40081474e-001, 1.79349333e-001, 7.39244223e-002,
          2.39287660e-001, 6.53164908e-002, 6.10741451e-002,
          1.22293495e-001, 2.02048078e-001, 9.30392891e-002,
          8.11681822e-002, 1.25621185e-001, 1.57166913e-001,
          2.39287660e-001, 7.52892345e-002, 7.90243670e-002,
          1.43145129e-001, 1.99432984e-001, 1.30286887e-001,
          1.58136487e-001, 2.39287660e-001, 2.20731482e-001,
          1.48269802e-001, 1.11923404e-001, 8.65963921e-002,
          2.16792896e-001, 2.30875194e-001, 1.87099621e-001,
          1.16786353e-001, 7.73193985e-002, 1.02489211e-001,
          2.03565583e-001, 1.74231097e-001, 1.55503869e-001,
          2.39287660e-001, 2.39287660e-001, 2.35256627e-001,
          1.35997355e-001, 1.20184444e-001, 1.92950815e-001,
          2.11642459e-001, 2.59482473e-001, 2.20819727e-001,
          8.29856023e-002, 9.92109925e-002, 1.18179306e-001,
          4.15043235e-002, 4.62509394e-002, 1.85731396e-001,
          2.53179431e-001, 2.59482473e-001, 2.59482473e-001,
          1.04901657e-001, 1.00622907e-001, 8.75190198e-002,
          1.18990289e-002, 2.13087089e-002, 1.09332331e-001,
          6.22969419e-002, 1.72355354e-001, 2.59482473e-001,
          2.59482473e-001, 2.59482473e-001, 9.77032259e-002,
          1.37157654e-002, 1.21419793e-002, 7.08380714e-002,
          8.62310305e-002, 2.59482473e-001, 2.59482473e-001,
          1.91621780e-001, 1.52901128e-001, 1.01217389e-001,
          2.68844943e-002, 1.62860125e-001, 1.92874864e-001,
          2.06784308e-001, 2.58625954e-001, 2.59738594e-001,
          1.16671190e-001, 1.62582383e-001, 1.26671880e-001,
          4.79898527e-002, 2.66998876e-002, 8.61203969e-002,
          6.70189932e-002, 1.02458112e-001, 1.00374140e-001,
          1.39473364e-001, 2.59738594e-001, 2.59738594e-001,
          1.07278839e-001, 2.04655826e-002, 3.15121189e-002,
          6.85099289e-002, 2.59738594e-001, 2.59738594e-001,
          2.00123042e-001, 1.45556778e-001, 1.12999327e-001,
          5.94820492e-002, 1.27080053e-001, 1.59493938e-001,
          1.59459144e-001, 2.59738594e-001, 2.59738594e-001,
          1.54857665e-001, 2.59738594e-001, 1.77394763e-001,
          9.38237756e-002, 1.75039079e-002, 1.01351783e-001,
          3.18182521e-002, 5.57670034e-002, 5.36628067e-002,
          1.17135048e-001, 2.72242367e-001, 2.72242367e-001,
          1.97554499e-001, 5.33469878e-002, 1.91879887e-002,
          5.59393689e-002, 5.82214445e-002, 4.90418673e-002,
          1.65557042e-001, 2.72242367e-001, 2.72242367e-001,
          1.77518666e-001, 7.58130997e-002, 2.29465310e-002,
          2.40010366e-001, 2.72242367e-001, 1.59144938e-001,
          8.54981840e-002, 2.72242367e-001, 2.08527133e-001,
          1.30390167e-001, 3.56988795e-002, 1.22086748e-001,
          1.14177033e-001, 7.69654140e-002, 1.58536121e-001,
          2.72242367e-001, 2.72242367e-001, 1.97778642e-001,
          8.61338899e-002, 4.84207496e-002, 8.59469399e-002,
          5.14724404e-002, 8.19592848e-002, 6.03312813e-002,
          1.71669289e-001, 2.38341972e-001, 2.12219223e-001,
          1.05600044e-001, 8.02618489e-002, 1.20774314e-001,
          1.03883639e-001, 2.06348211e-001, 1.74356088e-001,
          2.38341972e-001, 2.38341972e-001, 1.74483612e-001,
          1.51161999e-001, 1.77969277e-001, 2.38341972e-001,
          2.46416889e-002, 5.30464910e-002, 7.57482871e-002,
          1.73639894e-001, 2.38341972e-001, 2.28203863e-001,
          8.85349885e-002, 9.65643302e-002, 9.26164687e-002,
          5.58737069e-002, 1.07608385e-001, 9.14712548e-002,
          1.70146868e-001, 2.38341972e-001, 2.37826243e-001,
          2.31188685e-001, 2.38341972e-001, 1.79948345e-001,
          2.75055915e-002, 8.56973976e-002, 2.42257953e-001,
          2.47810766e-001, 2.47810766e-001, 4.80646193e-002,
          1.73847787e-002, 2.57925652e-002, 2.98566185e-002,
          7.73237348e-002, 1.83180526e-001, 2.47810766e-001,
          2.47810766e-001, 2.47810766e-001, 6.71406910e-002,
          3.13547999e-002, 1.44405380e-001, 1.45837739e-001,
          3.04972269e-002, 5.11426106e-002, 1.52560681e-001,
          2.43625090e-001, 2.47810766e-001, 2.12777972e-001,
          1.76791951e-001, 1.45578504e-001, 5.67397773e-002,
          1.10540539e-001, 9.82738435e-002, 1.63269833e-001,
          2.47810766e-001, 2.47810766e-001, 2.47810766e-001,
          1.41080931e-001, 1.47161558e-001, 9.75515768e-002,
          1.61285996e-001, 2.15134740e-001, 2.24496648e-001,
          1.91871509e-001, 1.41225532e-001, 5.74781485e-002,
          2.50741225e-002, 1.08698592e-001, 2.31131613e-001,
          2.60020643e-001, 2.60020643e-001, 1.73146456e-001,
          9.64936391e-002, 7.74150044e-002, 2.81362217e-002,
          1.53279370e-002, 3.16254646e-002, 2.60020643e-001,
          2.60020643e-001, 1.10764340e-001, 6.63328171e-002,
          1.20886669e-001, 2.36529738e-001, 1.51396155e-001,
          9.09486264e-002, 1.82382539e-001, 2.60020643e-001,
          2.60020643e-001, 8.98506492e-002, 2.10183784e-002,
          2.79092435e-002, 6.79194182e-002, 7.01789930e-002,
          1.27826765e-001, 2.03311786e-001, 2.60020643e-001,
          2.63167202e-001, 1.74201891e-001, 6.66828603e-002,
          2.79117338e-002, 5.69183454e-002, 3.11530121e-002,
          5.60818352e-002, 7.13571534e-002, 2.63167202e-001,
          1.71988398e-001, 7.33250305e-002, 1.34554535e-001,
          1.53995514e-001, 1.78927958e-001, 1.05318233e-001,
          9.79661867e-002, 8.38444605e-002, 1.78650662e-001,
          2.63167202e-001, 9.46869478e-002, 2.24866848e-002,
          1.93147194e-002, 8.25515091e-002, 9.83626470e-002,
          2.53255934e-001, 2.51296431e-001, 2.63167202e-001,
          1.31670728e-001, 6.07432686e-002, 7.37180710e-002,
          1.76110148e-001, 2.63167202e-001, 2.63167202e-001,
          2.63167202e-001, 2.30114192e-001, 1.79092690e-001,
          2.01364867e-002, 4.94568571e-002, 9.37806219e-002,
          1.47284895e-001, 2.76927531e-001, 2.50484377e-001,
          9.29607823e-002, 6.94413409e-002, 8.74536932e-002,
          1.21719772e-002, 1.36033678e-002, 2.35740580e-002,
          1.55985400e-001, 2.76927531e-001, 2.76927531e-001,
          1.76847205e-001, 1.42533883e-001, 6.11361265e-002,
          1.90702993e-002, 5.89888543e-002, 1.14761762e-001,
          2.61348873e-001, 2.76927531e-001, 2.76927531e-001,
          1.71866596e-001, 7.01033622e-002, 8.50517377e-002,
          1.52525455e-001, 1.33223787e-001, 1.25916749e-001,
          2.28773832e-001, 2.76927531e-001, 2.76927531e-001,
          1.15103111e-001, 5.27116023e-002, 1.02140807e-001,
          8.59434754e-002, 3.23175080e-002, 2.54257116e-002,
          6.67351261e-002, 1.19442500e-001, 2.48366550e-001,
          2.48366550e-001, 1.72736645e-001, 1.24953128e-001,
          1.43569604e-001, 9.80506465e-002, 6.71821982e-002,
          1.03424042e-001, 1.73508108e-001, 2.48366550e-001,
          2.09827960e-001, 1.51011243e-001, 9.80160609e-002,
          1.88527301e-001, 3.58298607e-002, 6.20268472e-003,
          2.17959620e-002, 1.22503944e-001, 2.48366550e-001,
          2.48366550e-001, 2.48366550e-001, 2.48366550e-001,
          2.23329931e-001, 1.23223118e-001, 3.88031974e-002,
          6.94582090e-002, 1.51295155e-001, 2.47094676e-001,
          2.48366550e-001, 1.96128994e-001, 1.80696622e-001,
          2.38350436e-001, 1.20081671e-001, 6.75758719e-002,
          5.75563125e-002, 1.18495174e-001, 1.53126061e-001,
          1.46905392e-001, 2.39935115e-001, 1.81773141e-001,
          2.37280324e-001, 9.45139155e-002, 3.56141962e-002,
          1.39441006e-002, 6.67308345e-002, 1.45474240e-001,
          2.39935115e-001, 2.39935115e-001, 2.39935115e-001,
          2.15039417e-001, 1.92268744e-001, 7.49972239e-002,
          5.84642552e-002, 9.79030877e-002, 1.19059756e-001,
          1.32070273e-001, 2.12277219e-001, 1.68822184e-001,
          2.39935115e-001, 2.07229659e-001, 7.34981149e-002,
          2.15519499e-002, 7.38760084e-002, 1.10595681e-001,
          2.39935115e-001, 2.39935115e-001, 2.39935115e-001,
          2.41286278e-001, 1.07475467e-001, 2.87391450e-002,
          3.10202651e-002, 8.37893561e-002, 1.10512882e-001,
          2.41286278e-001, 2.26352811e-001, 1.98882103e-001,
          2.20820844e-001, 1.33687526e-001, 1.03225663e-001,
          2.41286278e-001, 2.41286278e-001, 2.41286278e-001,
          1.95810780e-001, 1.09772220e-001, 1.02000870e-001,
          2.41286278e-001, 1.16863184e-001, 3.11270747e-002,
          1.93379540e-002, 5.64327165e-002, 6.43198341e-002,
          1.65571958e-001, 1.82907417e-001, 2.41286278e-001,
          2.41286278e-001, 1.85546964e-001, 1.10183515e-001,
          2.37142265e-001, 1.26210734e-001, 4.18489575e-002,
          3.54858935e-002, 8.50509256e-002, 2.41286278e-001,
          4.80198637e-002, 7.33913481e-002, 1.14241377e-001,
          2.46951744e-001, 2.46951744e-001, 2.45921344e-001,
          6.87083602e-002, 4.03234884e-002, 3.46290767e-002,
          2.45016232e-001, 1.86184615e-001, 1.47617906e-001,
          1.96952924e-001, 2.46951744e-001, 1.34617582e-001,
          4.20976318e-002, 3.60733122e-002, 8.40979293e-002,
          1.77863017e-001, 1.67737707e-001, 1.18955575e-001,
          2.46951744e-001, 2.46951744e-001, 8.45920295e-002,
          3.46026979e-002, 2.79359240e-002, 1.20968863e-001,
          2.46951744e-001, 2.46951744e-001, 2.46951744e-001,
          2.46951744e-001, 2.46951744e-001, 7.08989650e-002,
          4.06336971e-002, 1.74712818e-002, 1.03417084e-001 ]
      - [ 2.08334818e-001, 2.33594880e-001, 2.33594880e-001,
          2.33594880e-001, 2.33594880e-001, 2.47804746e-002,
          2.48996392e-002, 3.28888409e-002, 6.09286167e-002,
          2.33594880e-001, 2.33594880e-001, 1.17455445e-001,
          1.10176243e-001, 1.00853771e-001, 7.62710273e-002,
          1.05820075e-001, 1.96780950e-001, 1.71852559e-001,
          6.78301677e-002, 1.24791704e-001, 2.33594880e-001,
          2.33594880e-001, 2.33594880e-001, 1.48507029e-001,
          5.75174838e-002, 4.89785410e-002, 6.20860420e-002,
          8.63925740e-002, 1.36190996e-001, 1.40447184e-001,
          1.52298972e-001, 1.95327371e-001, 2.24576578e-001,
          2.27333978e-001, 1.72402203e-001, 2.12237686e-001,
          2.11178765e-001, 2.21776679e-001, 9.40377638e-002,
          8.79977569e-002, 7.75142014e-002, 9.56812575e-002,
          8.67633820e-002, 1.72396675e-001, 1.81645498e-001,
          1.76873371e-001, 2.32610062e-001, 2.20862433e-001,
          2.11187571e-001, 1.47432208e-001, 1.00623108e-001,
          6.47173449e-002, 8.25212821e-002, 1.62347481e-001,
          6.22171424e-002, 7.60796890e-002, 1.07775591e-001,
          1.57580227e-001, 1.66068718e-001, 2.32610062e-001,
          2.32610062e-001, 1.25239715e-001, 1.26983970e-001,
          1.26287341e-001, 2.32610062e-001, 2.32610062e-001,
          2.32610062e-001, 2.32610062e-001, 2.32610062e-001,
          2.04837695e-001, 8.90457854e-002, 6.18784092e-002,
          1.66234359e-001, 2.42853865e-001, 1.38189346e-001,
          1.23943567e-001, 1.15378603e-001, 1.00766771e-001,
          1.04332909e-001, 7.63709992e-002, 1.30895302e-001,
          1.30602106e-001, 1.76352754e-001, 1.12704836e-001,
          7.43134022e-002, 1.87707543e-001, 1.99455455e-001,
          1.90428138e-001, 1.13287844e-001, 1.25397280e-001,
          1.97359011e-001, 2.42853865e-001, 2.42853865e-001,
          1.54003724e-001, 1.57313451e-001, 1.64676338e-001,
          1.68140203e-001, 9.09238011e-002, 9.49052796e-002,
          9.88125205e-002, 2.42853865e-001, 2.42853865e-001,
          2.19638929e-001, 2.42853865e-001, 2.33668685e-001,
          1.71327278e-001, 6.71165511e-002, 1.07388712e-001,
          3.82921807e-002, 4.72564474e-002, 7.81459734e-002,
          7.96027109e-002, 2.35357553e-001, 2.61794060e-001,
          2.09522277e-001, 1.06889844e-001, 6.93953484e-002,
          1.00318961e-001, 5.02350442e-002, 1.04313426e-001,
          1.64236933e-001, 2.31787205e-001, 2.61794060e-001,
          2.61794060e-001, 1.78378597e-001, 1.25845283e-001,
          2.25913320e-002, 3.14617120e-002, 1.47897512e-001,
          1.85256198e-001, 2.61794060e-001, 2.61794060e-001,
          1.76358491e-001, 4.94469777e-002, 4.82271574e-002,
          7.16263354e-002, 3.72161753e-002, 9.84409302e-002,
          1.70515075e-001, 2.61794060e-001, 2.61794060e-001,
          2.61794060e-001, 1.42611891e-001, 8.00492913e-002,
          5.64975888e-002, 7.52852783e-002, 1.53389052e-001,
          1.42130822e-001, 2.15391695e-001, 2.32405066e-001,
          1.47190973e-001, 1.51463002e-001, 4.21563685e-002,
          1.49889618e-001, 1.14474058e-001, 1.53041855e-001,
          1.13516033e-001, 1.52556628e-001, 2.16892660e-001,
          2.02904820e-001, 2.11218849e-001, 1.64569214e-001,
          2.37803608e-001, 2.07988888e-001, 1.58530250e-001,
          1.83865726e-001, 1.01662070e-001, 1.63000152e-001,
          1.52889490e-001, 2.05221653e-001, 8.11771899e-002,
          2.37803608e-001, 2.37803608e-001, 1.57006949e-001,
          1.14379801e-001, 8.83409977e-002, 8.40018094e-002,
          1.04287624e-001, 2.30194360e-001, 2.14217350e-001,
          1.20704666e-001, 7.48006627e-002, 1.00802124e-001,
          8.68338943e-002, 1.78087413e-001, 2.36926839e-001,
          2.28017673e-001, 1.67693570e-001, 1.35267496e-001,
          9.13028568e-002, 1.12692349e-001, 1.14112481e-001,
          1.31421983e-001, 2.29907885e-001, 2.36926839e-001,
          2.36926839e-001, 1.71571165e-001, 5.10642193e-002,
          2.36926839e-001, 2.19566405e-001, 1.19644627e-001,
          5.13577349e-002, 1.01290695e-001, 1.22101270e-001,
          1.50721207e-001, 2.34206751e-001, 2.01459676e-001,
          1.35133058e-001, 1.18360430e-001, 5.32495342e-002,
          5.31670898e-002, 1.59733325e-001, 2.36926839e-001,
          2.36926839e-001, 2.36926839e-001, 1.68926120e-001,
          1.00371063e-001, 2.37153187e-001, 1.64557338e-001,
          9.25378650e-002, 1.44939020e-001, 2.08397135e-001,
          1.98816717e-001, 7.32963905e-002, 2.76139956e-002,
          5.60395084e-002, 2.49467835e-001, 2.49467835e-001,
          2.10367724e-001, 2.49467835e-001, 1.17761143e-001,
          7.27286860e-002, 1.75921284e-002, 2.29056980e-002,
          4.47750576e-002, 6.98859394e-002, 5.16101383e-002,
          7.56947175e-002, 2.30216622e-001, 2.49467835e-001,
          2.46757165e-001, 1.49097145e-001, 1.06286086e-001,
          2.91275438e-002, 1.99226737e-001, 2.49467835e-001,
          2.37017751e-001, 2.49467835e-001, 2.49467835e-001,
          1.41483232e-001, 4.84552123e-002, 2.53585782e-002,
          2.36930251e-002, 1.02567978e-001, 2.91501790e-001,
          2.39260778e-001, 2.91501790e-001, 1.68750823e-001,
          6.59558252e-002, 1.49398418e-002, 2.66470443e-002,
          4.91260700e-002, 1.70738660e-002, 9.91700441e-002,
          1.32227793e-001, 2.91501790e-001, 2.91501790e-001,
          2.39514247e-001, 8.17725733e-002, 6.66063949e-002,
          2.64525115e-002, 1.49830863e-001, 2.91501790e-001,
          2.35075578e-001, 1.80776343e-001, 2.05869183e-001,
          1.09876372e-001, 4.15354632e-002, 2.41450183e-002,
          3.63485925e-002, 4.46216203e-002, 9.35999006e-002,
          1.47334605e-001, 2.91501790e-001, 2.66146511e-001,
          9.14964676e-002, 6.25729486e-002, 4.34900448e-002,
          2.18604311e-001, 1.51322827e-001, 1.31430969e-001,
          2.39374205e-001, 2.00792387e-001, 1.19702816e-001,
          6.31798059e-002, 1.00170620e-001, 1.25175700e-001,
          2.39374205e-001, 2.07495600e-001, 8.93933326e-002,
          1.41528532e-001, 1.36354253e-001, 8.55500475e-002,
          5.13559021e-002, 1.28605306e-001, 1.76014259e-001,
          9.90495086e-002, 7.42121339e-002, 8.22190195e-002,
          1.84343085e-001, 2.39374205e-001, 2.39374205e-001,
          1.98511124e-001, 1.56790942e-001, 1.10111065e-001,
          1.93011478e-001, 1.76563546e-001, 7.01750070e-002,
          1.43774524e-001, 1.37404844e-001, 2.39374205e-001,
          2.39374205e-001, 2.17522800e-001, 2.04855517e-001,
          2.33115196e-001, 1.78275794e-001, 7.73507208e-002,
          4.97496389e-002, 5.07588722e-002, 3.61775793e-002,
          9.93458778e-002, 2.33115196e-001, 2.02972576e-001,
          1.24386840e-001, 1.20677039e-001, 7.24738687e-002,
          8.93341079e-002, 1.05164148e-001, 1.38936520e-001,
          1.81413606e-001, 2.33115196e-001, 2.07874119e-001,
          2.33115196e-001, 1.75453991e-001, 1.05998956e-001,
          1.10392168e-001, 3.60927209e-002, 5.59307151e-002,
          1.75326288e-001, 2.33115196e-001, 2.33115196e-001,
          1.54833138e-001, 2.33115196e-001, 2.33115196e-001,
          2.33115196e-001, 9.83612612e-002, 7.43626431e-002,
          1.76704347e-001, 2.33115196e-001, 2.22525313e-001,
          3.77034172e-002, 4.47367728e-002, 4.79749031e-002,
          7.30073750e-002, 1.74724713e-001, 2.38455892e-001,
          1.66581497e-001, 2.23173946e-001, 1.56777427e-001,
          1.11352000e-002, 4.29220758e-002, 8.44244659e-002,
          1.45574883e-001, 2.46939331e-001, 2.46939331e-001,
          2.46939331e-001, 1.46788031e-001, 7.66015202e-002,
          5.37955873e-002, 1.86003685e-001, 1.70982212e-001,
          1.93180263e-001, 2.46939331e-001, 2.07983375e-001,
          1.06263541e-001, 1.65708259e-001, 1.05337411e-001,
          4.61743250e-002, 8.45232978e-002, 1.24669507e-001,
          2.46939331e-001, 2.46939331e-001, 2.46939331e-001,
          2.46939331e-001, 1.31926090e-001, 1.09760851e-001,
          2.43435483e-002, 6.53197616e-002, 8.59632939e-002,
          1.84790477e-001, 1.90684453e-001, 2.47428313e-001,
          2.10448027e-001, 9.58311260e-002, 3.10124233e-002,
          4.56596799e-002, 8.18673447e-002, 7.25534931e-002,
          1.82272270e-001, 2.80319959e-001, 1.56963110e-001,
          9.10901725e-002, 1.05294444e-001, 5.25267608e-002,
          5.24399243e-002, 6.74981847e-002, 1.07115604e-001,
          2.73416698e-001, 2.80319959e-001, 2.11387962e-001,
          2.15119049e-001, 7.08320588e-002, 4.84473072e-002,
          1.06244817e-001, 2.80319959e-001, 2.80319959e-001,
          2.80319959e-001, 2.80319959e-001, 1.37270778e-001,
          5.93073443e-002, 6.16212785e-002, 6.28407076e-002,
          3.15528363e-002, 5.22527732e-002, 5.21696284e-002,
          9.50389579e-002, 2.00040042e-001, 2.40282416e-001,
          2.40282416e-001, 1.55412987e-001, 8.80475715e-002,
          7.75093287e-002, 6.90199211e-002, 3.48186828e-002,
          1.18223809e-001, 1.27047434e-001, 2.36230344e-001,
          2.40282416e-001, 2.40282416e-001, 2.02127799e-001,
          3.60000171e-002, 6.98840395e-002, 7.80775473e-002,
          1.05192736e-001, 1.94576740e-001, 2.40282416e-001,
          2.40282416e-001, 2.40282416e-001, 2.37677306e-001,
          4.43670936e-002, 4.45887074e-002, 2.30969489e-002,
          1.63230583e-001, 2.09635332e-001, 1.86343759e-001,
          2.40282416e-001, 2.09236011e-001, 1.95634738e-001,
          1.74330533e-001, 1.03989385e-001, 6.45499155e-002,
          8.88966024e-002, 5.62321357e-002, 6.99852332e-002,
          2.24632159e-001, 2.36293867e-001, 2.36293867e-001,
          1.47409558e-001, 2.36293867e-001, 1.88588694e-001,
          1.42050833e-001, 6.19646050e-002, 5.18661365e-002,
          2.36293867e-001, 1.56478792e-001, 2.05612227e-001,
          1.69898599e-001, 9.30359215e-002, 7.91347846e-002,
          1.22519001e-001, 1.21728711e-001, 6.53888658e-002,
          1.34345204e-001, 1.88839152e-001, 2.29690552e-001,
          2.36293867e-001, 2.36293867e-001, 1.65535018e-001,
          1.14374511e-001, 1.17496379e-001, 8.90184194e-002,
          2.36293867e-001, 2.04531401e-001, 2.36293867e-001,
          5.61857074e-002, 2.41101652e-001, 1.33004293e-001,
          1.97207376e-001, 2.47287229e-001, 1.15210593e-001,
          8.86047855e-002, 5.32987900e-002, 6.87383190e-002,
          4.85039204e-002, 1.42792329e-001, 1.31415233e-001,
          2.47287229e-001, 2.47287229e-001, 1.53464794e-001,
          6.43711612e-002, 2.91491114e-002, 4.12929691e-002,
          1.90858483e-001, 2.43620589e-001, 1.23936348e-001,
          1.58443987e-001, 2.10788533e-001, 1.63410768e-001,
          1.62107438e-001, 1.22587956e-001, 2.44359985e-001,
          1.41752556e-001, 1.98033676e-001, 1.57220960e-001,
          2.47287229e-001, 2.47287229e-001, 2.10040465e-001,
          1.29592717e-001, 6.93562403e-002, 1.29641324e-001,
          5.51729910e-002, 9.03059542e-002, 1.83378577e-001,
          2.79408067e-001, 2.78684795e-001, 9.35868025e-002,
          4.65992838e-002, 1.23506924e-002, 2.08936799e-002,
          6.56697080e-002, 2.42127508e-001, 2.79408067e-001,
          2.79408067e-001, 1.61772206e-001, 4.97088395e-002,
          1.07433442e-002, 9.57916118e-003, 2.81177331e-002,
          1.54091462e-001, 2.15694949e-001, 2.60530442e-001,
          2.79408067e-001, 1.52593151e-001, 7.26308972e-002,
          4.23417650e-002, 3.46279219e-002, 7.01591596e-002,
          1.49686024e-001, 2.59464353e-001, 2.79408067e-001,
          2.79408067e-001, 1.71665326e-001, 4.18716259e-002,
          1.20953238e-002, 2.46512331e-002, 7.67047852e-002 ]
      - [ 2.50275582e-001, 1.14911482e-001, 1.54743224e-001,
          1.17258295e-001, 1.92348480e-001, 1.47594571e-001,
          1.13039806e-001, 2.06385583e-001, 2.50275582e-001,
          2.50275582e-001, 1.25705808e-001, 1.09896488e-001,
          7.22287446e-002, 8.94192383e-002, 7.72909150e-002,
          8.26014578e-002, 1.49966225e-001, 2.50275582e-001,
          1.18469045e-001, 8.91978592e-002, 1.48385569e-001,
          2.04440117e-001, 2.50275582e-001, 2.25274667e-001,
          1.05224848e-001, 1.72287375e-001, 1.74374774e-001,
          1.45075604e-001, 1.38572469e-001, 2.14143828e-001,
          1.46762848e-001, 1.79255843e-001, 1.23068549e-001,
          7.97793120e-002, 1.05986059e-001, 2.50275582e-001,
          2.91132480e-001, 1.06700175e-001, 3.31283174e-002,
          2.96192821e-002, 2.75572818e-002, 8.58402345e-003,
          3.61453108e-002, 1.35465950e-001, 2.91132480e-001,
          2.91132480e-001, 1.72425687e-001, 2.61837039e-002,
          7.19361007e-003, 3.75462137e-002, 8.40846449e-002,
          2.06148773e-001, 1.82140961e-001, 2.91132480e-001,
          2.64515400e-001, 1.36509806e-001, 1.19606920e-001,
          7.86851123e-002, 1.01432331e-001, 5.19787483e-002,
          4.69010174e-002, 8.75018239e-002, 2.91132480e-001,
          2.86070704e-001, 1.87840968e-001, 8.35636407e-002,
          7.08696246e-002, 1.35850072e-001, 1.64778396e-001,
          2.40231633e-001, 1.11055978e-001, 2.19327331e-001,
          2.58586168e-001, 2.58586168e-001, 7.78305605e-002,
          9.15256888e-003, 4.30302471e-002, 9.80525166e-002,
          2.04359934e-001, 1.95563123e-001, 2.58586168e-001,
          2.58586168e-001, 2.58586168e-001, 5.25575690e-002,
          7.52734765e-003, 4.43804450e-002, 6.49311393e-002,
          7.11896196e-002, 2.11194336e-001, 2.58586168e-001,
          1.20889246e-001, 1.99238375e-001, 1.07253864e-001,
          8.15888941e-002, 1.77118808e-001, 1.98741451e-001,
          2.58586168e-001, 1.53959975e-001, 1.23062246e-001,
          1.91430852e-001, 2.13288367e-001, 6.43389970e-002,
          8.43149945e-002, 1.79171413e-001, 1.33088008e-001,
          1.36653051e-001, 1.37141541e-001, 1.00930154e-001,
          2.20686495e-001, 9.32175592e-002, 4.31790985e-002,
          1.15856804e-001, 9.08408910e-002, 6.74094409e-002,
          1.12193488e-001, 2.17784747e-001, 2.46670052e-001,
          1.00583695e-001, 3.00659761e-002, 1.30764306e-001,
          2.46670052e-001, 2.46670052e-001, 2.30067909e-001,
          2.46670052e-001, 2.46670052e-001, 2.46670052e-001,
          9.07678679e-002, 8.03491995e-002, 5.40771857e-002,
          7.89956674e-002, 1.21392511e-001, 8.69176909e-002,
          1.25532880e-001, 1.26588821e-001, 1.01644807e-001,
          3.98791954e-002, 2.88003031e-002, 1.24237575e-001,
          2.03725979e-001, 2.46670052e-001, 2.20164955e-001,
          2.46670052e-001, 2.46670052e-001, 1.65161610e-001,
          7.03443885e-002, 9.39876214e-002, 1.25105098e-001,
          2.36699745e-001, 2.36699745e-001, 2.36699745e-001,
          1.00043319e-001, 9.86607149e-002, 7.11598322e-002,
          1.23535901e-001, 1.47883922e-001, 1.53483391e-001,
          2.32000664e-001, 2.36699745e-001, 2.36699745e-001,
          9.14528891e-002, 7.60129169e-002, 7.50015825e-002,
          2.36699745e-001, 1.28594384e-001, 1.10469803e-001,
          1.70236945e-001, 2.36699745e-001, 2.36699745e-001,
          9.26350355e-002, 6.25322834e-002, 1.27008751e-001,
          2.36699745e-001, 1.18886374e-001, 1.15841001e-001,
          2.12859452e-001, 2.36699745e-001, 2.34234050e-001,
          1.10712484e-001, 5.80586120e-002, 1.38378322e-001,
          1.93238214e-001, 1.42501473e-001, 9.48876962e-002,
          1.20755613e-001, 1.57228962e-001, 1.71346515e-001,
          2.00888112e-001, 1.11140803e-001, 1.03088841e-001,
          1.58661187e-001, 1.47702590e-001, 1.15279026e-001,
          1.33282393e-001, 2.25416273e-001, 2.64600605e-001,
          2.64600605e-001, 8.74994770e-002, 7.61206746e-002,
          1.30245700e-001, 5.38436994e-002, 6.71778619e-002,
          1.17944159e-001, 2.64600605e-001, 2.64600605e-001,
          2.64600605e-001, 1.06304295e-001, 8.10838342e-002,
          8.55876431e-002, 7.68512264e-002, 7.45190233e-002,
          6.43173456e-002, 2.64600605e-001, 2.64600605e-001,
          2.64600605e-001, 1.10742345e-001, 7.03240559e-002,
          1.42614707e-001, 1.11301415e-001, 1.10446751e-001,
          1.32320926e-001, 2.41246685e-001, 2.41246685e-001,
          1.83325917e-001, 7.26319775e-002, 6.83872625e-002,
          1.99001878e-001, 1.44053057e-001, 7.00691491e-002,
          1.20857514e-001, 2.41246685e-001, 2.28177086e-001,
          1.17637463e-001, 9.28603262e-002, 9.78280157e-002,
          2.41246685e-001, 2.30923623e-001, 1.56428590e-001,
          7.11632296e-002, 1.59300208e-001, 2.41246685e-001,
          1.60059825e-001, 6.86989874e-002, 1.31466269e-001,
          2.41246685e-001, 2.41246685e-001, 2.41246685e-001,
          9.10727456e-002, 1.42711699e-001, 1.53074950e-001,
          5.97635619e-002, 1.05901793e-001, 1.98218197e-001,
          7.46820942e-002, 1.02237776e-001, 1.06509581e-001,
          1.54741973e-001, 1.97521776e-001, 1.09044805e-001,
          1.02200419e-001, 8.47744942e-002, 6.55593053e-002,
          2.63412632e-002, 4.95438129e-002, 1.79344535e-001,
          2.65015751e-001, 2.65015751e-001, 2.34786481e-001,
          2.35203952e-001, 1.46904007e-001, 5.46279363e-002,
          1.63366273e-001, 2.26505831e-001, 2.65015751e-001,
          2.41920054e-001, 1.51516259e-001, 7.11593255e-002,
          6.26472309e-002, 1.08186707e-001, 9.92573425e-002,
          5.37109412e-002, 8.37193504e-002, 2.46130839e-001,
          2.65015751e-001, 2.65015751e-001, 2.65015751e-001,
          1.33418381e-001, 4.46110144e-002, 3.44670899e-002,
          2.42588818e-001, 2.22586319e-001, 1.30494043e-001,
          1.35763809e-001, 9.56567600e-002, 9.11888853e-002,
          7.88454190e-002, 8.49187002e-002, 1.56531185e-001,
          2.56602168e-001, 2.41367385e-001, 1.65183276e-001,
          1.45239100e-001, 1.87155128e-001, 1.03950776e-001,
          8.99462476e-002, 7.94041753e-002, 2.03328535e-001,
          1.60529420e-001, 2.56602168e-001, 1.82566151e-001,
          2.56602168e-001, 1.72818407e-001, 7.22134486e-002,
          6.91596270e-002, 8.97766426e-002, 9.49357972e-002,
          2.56602168e-001, 2.56602168e-001, 1.68999612e-001,
          1.67664915e-001, 1.02667347e-001, 4.18300591e-002,
          4.41714078e-002, 8.92082378e-002, 2.56602168e-001,
          1.10382095e-001, 6.54213578e-002, 8.42861459e-002,
          1.06905632e-001, 2.50254512e-001, 2.09487349e-001,
          1.53164387e-001, 1.01548247e-001, 1.07527331e-001,
          5.06456718e-002, 5.33419102e-002, 8.12662989e-002,
          8.20813924e-002, 2.50254512e-001, 2.50254512e-001,
          2.44204476e-001, 1.35210365e-001, 4.25084122e-002,
          2.50254512e-001, 1.96500108e-001, 7.11268783e-002,
          7.75227174e-002, 1.56784028e-001, 6.20642714e-002,
          5.50252646e-002, 1.54098183e-001, 2.50254512e-001,
          2.18314871e-001, 1.03846498e-001, 1.14970125e-001,
          2.06576630e-001, 2.50254512e-001, 1.97922304e-001,
          1.61225066e-001, 2.46409252e-001, 2.32234791e-001,
          1.19401127e-001, 1.67220116e-001, 2.23007977e-001,
          7.74287283e-002, 1.37969390e-001, 1.42257780e-001,
          1.14288516e-001, 6.09984472e-002, 6.58163950e-002,
          2.34822229e-001, 2.34822229e-001, 2.34822229e-001,
          1.43100113e-001, 8.97753090e-002, 8.15195814e-002,
          1.49943829e-001, 1.01847082e-001, 1.61689252e-001,
          9.06389430e-002, 1.26864985e-001, 1.84492931e-001,
          1.74406201e-001, 2.34822229e-001, 1.52449369e-001,
          1.54594496e-001, 1.62118793e-001, 1.49711400e-001,
          1.44690514e-001, 1.75702840e-001, 2.34822229e-001,
          1.57011330e-001, 1.41480759e-001, 1.59061521e-001,
          2.34822229e-001, 2.34822229e-001, 2.29713172e-001,
          1.81611285e-001, 2.44668916e-001, 2.42667034e-001,
          1.91102996e-001, 1.24586731e-001, 8.81804451e-002,
          1.25088960e-001, 9.42100883e-002, 1.20513558e-001,
          8.16268250e-002, 9.26347002e-002, 1.45548642e-001,
          2.44668916e-001, 2.44668916e-001, 2.44668916e-001,
          1.08950824e-001, 3.14064436e-002, 5.51274084e-002,
          1.08534276e-001, 1.23492174e-001, 1.25707880e-001,
          1.31370574e-001, 2.35559523e-001, 2.12320760e-001,
          2.44668916e-001, 1.75915584e-001, 1.88041911e-001,
          5.52075133e-002, 6.65748045e-002, 1.36312008e-001,
          2.44668916e-001, 2.44668916e-001, 2.44668916e-001,
          1.06031016e-001, 5.51144518e-002, 9.10330340e-002,
          2.24278942e-001, 2.44563863e-001, 1.85563102e-001,
          2.44563863e-001, 1.31442249e-001, 3.60549726e-002,
          3.77514288e-002, 3.80106345e-002, 8.11803266e-002,
          2.44563863e-001, 2.44563863e-001, 1.21243410e-001,
          1.52351275e-001, 5.76805510e-002, 3.98397110e-002,
          3.57131884e-002, 7.29967281e-002, 2.00782642e-001,
          1.67558581e-001, 2.44563863e-001, 2.44563863e-001,
          1.73516318e-001, 2.39068925e-001, 1.24426782e-001,
          6.17011264e-002, 5.24842627e-002, 6.83862418e-002,
          2.44563863e-001, 1.81702763e-001, 1.51206404e-001,
          1.10000268e-001, 1.72905371e-001, 1.21155612e-001,
          1.27209350e-001, 2.44563863e-001, 2.13903412e-001,
          2.71188349e-001, 1.50478214e-001, 4.12709825e-002,
          5.18696755e-002, 3.41194309e-002, 1.71221681e-002,
          2.97953691e-002, 1.21457346e-001, 2.41593316e-001,
          2.71188349e-001, 1.33889347e-001, 6.68892413e-002,
          9.62876827e-002, 1.18050963e-001, 4.83689345e-002,
          1.03574008e-001, 2.68916637e-001, 2.71188349e-001,
          2.71188349e-001, 1.15324214e-001, 4.17077392e-002,
          5.31338900e-002, 7.20932484e-002, 4.88109104e-002,
          7.60650858e-002, 2.60034621e-001, 2.71188349e-001,
          2.71188349e-001, 2.54865557e-001, 4.33690585e-002,
          2.89033074e-002, 6.06165640e-002, 3.51179540e-002,
          6.48423731e-002, 2.70857990e-001, 2.71188349e-001,
          1.81853220e-001, 1.68023482e-001, 1.14092208e-001,
          1.04614884e-001, 1.28586486e-001, 1.40070528e-001,
          1.59425393e-001, 2.28117540e-001, 2.33965829e-001,
          1.08377077e-001, 1.15983747e-001, 2.28416547e-001,
          1.40857875e-001, 1.35387227e-001, 1.90213233e-001,
          2.19118521e-001, 1.54694155e-001, 1.18130125e-001,
          2.33965829e-001, 2.33965829e-001, 1.57250464e-001,
          6.31750226e-002, 9.50034112e-002, 1.12705171e-001,
          7.32122362e-002, 1.87943384e-001, 2.33965829e-001,
          1.03197925e-001, 1.29247606e-001, 2.33965829e-001,
          2.06812501e-001, 2.33965829e-001, 2.21709594e-001,
          6.40265197e-002, 7.19814524e-002, 1.14176191e-001,
          5.04698232e-002, 5.33474721e-002, 1.42200932e-001,
          1.71462804e-001, 2.70158559e-001, 1.94554254e-001,
          1.42896369e-001, 7.69571513e-002, 7.45814517e-002,
          2.70321723e-002, 6.64310977e-002, 2.50201851e-001,
          2.72796065e-001, 2.72796065e-001, 2.33220756e-001,
          8.60245302e-002, 3.44535895e-002, 4.22805697e-002,
          6.76053539e-002, 1.56831861e-001, 2.16241673e-001,
          2.30961755e-001, 2.30039850e-001, 1.65244892e-001,
          4.77216020e-002, 2.34485734e-002, 8.04870017e-003,
          9.19165015e-002, 1.69693291e-001, 2.72796065e-001,
          2.72796065e-001, 2.72796065e-001, 1.91474512e-001,
          8.86316225e-002, 2.28116177e-002, 1.57835912e-002 ]
      - [ 2.28910238e-001, 1.95861742e-001, 1.95339993e-001,
          2.10056707e-001, 2.02188000e-001, 1.78820103e-001,
          4.98954542e-002, 5.23437858e-002, 2.14080527e-001,
          2.13848084e-001, 1.68408990e-001, 1.46551192e-001,
          1.28899142e-001, 1.17453359e-001, 2.08540738e-001,
          9.47026312e-002, 1.06043100e-001, 1.39316559e-001,
          1.58595175e-001, 8.54631364e-002, 1.78622007e-001,
          2.28910238e-001, 2.28910238e-001, 2.28910238e-001,
          1.02341920e-001, 1.22469328e-001, 1.07376680e-001,
          1.06139995e-001, 7.48547912e-002, 1.17915101e-001,
          2.14167640e-001, 1.38640404e-001, 2.28910238e-001,
          1.58196658e-001, 2.25603893e-001, 9.43979546e-002,
          1.66495800e-001, 1.17870696e-001, 7.98888057e-002,
          5.49045056e-002, 1.23456992e-001, 1.55175090e-001,
          1.47887155e-001, 2.08531111e-001, 1.45465851e-001,
          9.93297100e-002, 5.45190126e-002, 5.96210174e-002,
          6.40081540e-002, 1.76755130e-001, 1.08054049e-001,
          1.90027520e-001, 2.72702545e-001, 1.88710481e-001,
          1.29828036e-001, 6.62796274e-002, 1.09355472e-001,
          2.36170545e-001, 2.22667515e-001, 2.72702545e-001,
          1.72518209e-001, 1.64404541e-001, 1.21721663e-001,
          5.82338050e-002, 5.64635918e-002, 1.43731102e-001,
          2.25278795e-001, 2.72702545e-001, 2.72702545e-001,
          1.75083742e-001, 2.44937286e-001, 9.49771702e-002,
          4.78364117e-002, 3.81937288e-002, 8.77059549e-002,
          1.95920050e-001, 1.70456767e-001, 5.05949482e-002,
          1.42934263e-001, 2.46325716e-001, 1.77207068e-001,
          4.14917320e-002, 7.92490467e-002, 1.05113052e-001,
          2.46325716e-001, 2.46325716e-001, 1.66219443e-001,
          1.09541796e-001, 1.52130097e-001, 6.56739697e-002,
          4.33708318e-002, 1.01970583e-001, 2.46325716e-001,
          2.46325716e-001, 2.46325716e-001, 1.95663393e-001,
          1.38252780e-001, 2.27179155e-001, 7.22190365e-002,
          1.26342237e-001, 1.58390105e-001, 2.29829669e-001,
          1.96113899e-001, 2.46325716e-001, 2.46325716e-001,
          1.19924799e-001, 1.32545084e-001, 4.39824611e-002,
          7.43028000e-002, 8.72796327e-002, 5.88976927e-002,
          1.31168678e-001, 2.20409811e-001, 1.92654207e-001,
          1.99920610e-001, 1.48311093e-001, 4.77762446e-002,
          1.12476043e-001, 1.00569308e-001, 5.85078113e-002,
          8.11504200e-002, 1.52705595e-001, 2.46118709e-001,
          2.46118709e-001, 2.46118709e-001, 1.82427868e-001,
          6.24057092e-002, 1.01820469e-001, 1.39650151e-001,
          2.22252920e-001, 2.46118709e-001, 2.46118709e-001,
          1.01859450e-001, 5.97746558e-002, 9.13385488e-003,
          9.08079520e-002, 2.11011499e-001, 2.23396510e-001,
          1.93526670e-001, 2.21055448e-001, 1.70500666e-001,
          2.27591783e-001, 2.03819916e-001, 1.13756202e-001,
          1.54925426e-002, 2.23288871e-002, 1.15512401e-001,
          2.53459424e-001, 2.53459424e-001, 2.53459424e-001,
          7.37748072e-002, 1.08896434e-001, 3.64438742e-002,
          3.05202976e-002, 3.91572490e-002, 1.11583449e-001,
          2.31297895e-001, 2.53459424e-001, 2.53459424e-001,
          1.40382111e-001, 1.62968040e-001, 6.32945299e-002,
          5.93595728e-002, 1.08268596e-001, 1.06404841e-001,
          2.15219438e-001, 2.53459424e-001, 2.53459424e-001,
          8.04252326e-002, 3.84333171e-002, 4.28171158e-002,
          8.34778473e-002, 1.81566432e-001, 2.53459424e-001,
          2.32183337e-001, 2.53459424e-001, 2.53459424e-001,
          1.26441047e-001, 8.62840787e-002, 6.09172285e-002,
          3.22835408e-002, 2.75836997e-002, 9.38777700e-002,
          2.54743516e-001, 2.54743516e-001, 2.54743516e-001,
          1.30470991e-001, 8.86319578e-002, 7.53711388e-002,
          4.80081402e-002, 5.47175854e-002, 8.32427293e-002,
          1.51490062e-001, 2.54743516e-001, 2.54743516e-001,
          1.48749948e-001, 1.73684224e-001, 1.62092566e-001,
          5.56401834e-002, 1.04962945e-001, 1.79576710e-001,
          2.54743516e-001, 2.54743516e-001, 2.54743516e-001,
          1.45822108e-001, 9.93305743e-002, 6.41641542e-002,
          4.62590009e-002, 7.13065118e-002, 1.42377004e-001,
          2.19490737e-001, 2.54743516e-001, 2.31515959e-001,
          9.46315378e-002, 1.36974424e-001, 1.41029477e-001,
          8.23135003e-002, 1.15444534e-001, 2.02043846e-001,
          1.63220868e-001, 2.16964155e-001, 1.85733154e-001,
          1.31637529e-001, 1.85307682e-001, 1.18596114e-001,
          2.30362445e-001, 2.30362445e-001, 2.30362445e-001,
          1.79903552e-001, 2.23984987e-001, 1.56404808e-001,
          6.24535121e-002, 8.42334777e-002, 5.65037690e-002,
          4.75883558e-002, 1.08906940e-001, 1.99414387e-001,
          1.87922671e-001, 2.30362445e-001, 1.62907958e-001,
          1.19397938e-001, 1.78601980e-001, 9.58739594e-002,
          1.68364391e-001, 2.30362445e-001, 2.30362445e-001,
          2.23521963e-001, 1.91332385e-001, 1.17144272e-001,
          1.05321072e-001, 1.01500779e-001, 4.60062325e-002,
          1.13547266e-001, 1.32944956e-001, 1.73051775e-001,
          2.48948380e-001, 2.48948380e-001, 1.41130179e-001,
          1.58065576e-002, 4.67786239e-003, 9.36026685e-003,
          6.94842637e-002, 1.76430404e-001, 2.15511963e-001,
          2.48948380e-001, 2.48948380e-001, 6.93643391e-002,
          6.32217899e-002, 3.77789773e-002, 6.88297749e-002,
          1.51125401e-001, 2.48948380e-001, 2.48948380e-001,
          2.48948380e-001, 2.48948380e-001, 7.70509392e-002,
          4.32414860e-002, 2.73381323e-002, 2.87877470e-002,
          1.29552796e-001, 2.18560115e-001, 2.48948380e-001,
          2.48948380e-001, 2.41288707e-001, 4.10005338e-002,
          5.08427285e-002, 1.19693652e-001, 1.61264911e-001,
          5.94517738e-002, 1.47486493e-001, 1.20617755e-001,
          1.65362090e-001, 2.72805750e-001, 2.72805750e-001,
          7.14133680e-002, 1.67857222e-002, 2.88514961e-002,
          9.13389996e-002, 2.72805750e-001, 2.72805750e-001,
          1.92692220e-001, 1.36013940e-001, 1.06724478e-001,
          7.38452300e-002, 6.09227568e-002, 4.80607413e-002,
          2.43744850e-002, 9.71008018e-002, 1.63064077e-001,
          2.72805750e-001, 2.72805750e-001, 2.72805750e-001,
          2.82106251e-002, 2.38875393e-003, 1.61624253e-002,
          3.31536904e-002, 2.52903521e-001, 2.72805750e-001,
          2.72805750e-001, 2.46392220e-001, 5.68247698e-002,
          1.37014557e-002, 8.92578997e-003, 1.71774384e-002,
          7.14138001e-002, 1.71938285e-001, 2.43495569e-001,
          2.43495569e-001, 1.92703456e-001, 1.27735689e-001,
          1.19982988e-001, 1.07941009e-001, 5.27238324e-002,
          2.65981592e-002, 8.70617479e-002, 2.43495569e-001,
          2.43495569e-001, 2.26016700e-001, 1.58287153e-001,
          7.54051954e-002, 9.75222513e-002, 6.48788288e-002,
          3.42162959e-002, 1.61599725e-001, 2.43495569e-001,
          2.43495569e-001, 1.98975325e-001, 1.09056562e-001,
          5.45114577e-002, 4.18652520e-002, 3.36650163e-002,
          1.60882071e-001, 1.20495372e-001, 2.43495569e-001,
          2.43495569e-001, 1.37432501e-001, 1.69683337e-001,
          1.05754271e-001, 2.43495569e-001, 2.43495569e-001,
          2.56468207e-002, 1.07676804e-001, 2.16872573e-001,
          1.66164234e-001, 1.37179077e-001, 1.32414430e-001,
          7.83408359e-002, 1.16358653e-001, 6.39601201e-002,
          1.09480858e-001, 2.42072389e-001, 2.33850837e-001,
          1.74954742e-001, 1.79181442e-001, 2.39804864e-001,
          1.50073767e-001, 9.70983729e-002, 5.58294281e-002,
          1.71630189e-001, 1.65434569e-001, 1.41761094e-001,
          8.53944942e-002, 3.68182696e-002, 7.77921677e-002,
          5.82025126e-002, 2.42072389e-001, 2.42072389e-001,
          1.45666599e-001, 2.42072389e-001, 1.57209754e-001,
          1.84542269e-001, 2.42072389e-001, 2.42072389e-001,
          1.58926636e-001, 1.49196595e-001, 2.33440533e-001,
          1.08646572e-001, 2.08741605e-001, 2.29028583e-001,
          1.57363877e-001, 1.31347299e-001, 1.83386043e-001,
          2.29028583e-001, 7.38181174e-002, 6.63771853e-002,
          1.43987119e-001, 2.01834232e-001, 1.95277452e-001,
          1.36976391e-001, 7.16359839e-002, 9.94767994e-002,
          1.97928354e-001, 1.54081643e-001, 1.84791565e-001,
          6.59543276e-002, 1.45147756e-001, 1.41391635e-001,
          2.05091313e-001, 2.29028583e-001, 2.29028583e-001,
          2.29028583e-001, 7.86877349e-002, 6.61716163e-002,
          1.89611152e-001, 1.85500070e-001, 1.77956849e-001,
          1.62028670e-001, 1.13092922e-001, 2.00053945e-001,
          2.29028583e-001, 1.13790989e-001, 1.39871597e-001,
          9.12549067e-003, 2.00781953e-002, 7.41743594e-002,
          2.69698471e-001, 2.69698471e-001, 2.37278298e-001,
          4.16978896e-002, 2.64431406e-002, 1.27740931e-002,
          1.39188478e-002, 6.16216436e-002, 2.36757189e-001,
          2.28977159e-001, 2.69698471e-001, 7.58176446e-002,
          8.51314515e-002, 3.71815264e-002, 3.07428464e-002,
          2.36700047e-002, 1.36852935e-002, 3.70284058e-002,
          1.35488138e-001, 2.69698471e-001, 2.69698471e-001,
          2.69698471e-001, 2.49065056e-001, 9.29424912e-002,
          8.56058598e-002, 3.25961635e-002, 5.24771661e-002,
          7.58421049e-002, 1.88875809e-001, 9.76512879e-002,
          2.69698471e-001, 2.63559669e-001, 2.69698471e-001,
          4.28442098e-002, 7.65479803e-002, 2.75358707e-001,
          1.88960060e-001, 9.66019183e-002, 1.08740635e-001,
          9.82155353e-002, 9.79572758e-002, 9.08885598e-002,
          2.53711134e-001, 1.18226267e-001, 1.79665238e-001,
          1.22580044e-001, 5.69057092e-002, 9.30050537e-002,
          6.66716099e-002, 2.75358707e-001, 2.75358707e-001,
          1.46271765e-001, 1.04405202e-001, 1.53484508e-001,
          5.98206148e-002, 5.90531565e-002, 1.06534593e-001,
          2.20292613e-001, 2.37538606e-001, 2.75358707e-001,
          2.75358707e-001, 1.30789593e-001, 1.61040455e-001,
          4.37885150e-002, 3.07221897e-002, 6.07903898e-002,
          6.02220930e-002, 2.75358707e-001, 2.75358707e-001,
          2.55982369e-001, 1.69233710e-001, 6.43117502e-002,
          3.80240865e-002, 9.19809192e-003, 1.94339380e-002,
          3.44239511e-002, 2.55982369e-001, 2.55982369e-001,
          2.42906824e-001, 2.55982369e-001, 1.26135334e-001,
          1.00153081e-001, 1.73314288e-001, 1.96671262e-001,
          7.27446079e-002, 1.01396322e-001, 1.92986950e-001,
          2.55982369e-001, 2.06934094e-001, 8.83225203e-002,
          2.15647891e-002, 1.95105113e-002, 1.36306128e-002,
          2.58770846e-002, 2.07511216e-001, 2.55982369e-001,
          2.55982369e-001, 2.55982369e-001, 1.73327670e-001,
          5.49844615e-002, 9.22692269e-002, 7.80336186e-002,
          4.56742495e-002, 1.42167911e-001, 2.55982369e-001,
          1.02055907e-001, 1.33769453e-001, 1.44892111e-001,
          1.91754386e-001, 2.26481184e-001, 2.26481184e-001,
          1.46352991e-001, 3.70643623e-002, 5.01222163e-002,
          1.86777234e-001, 1.66522279e-001, 1.79992676e-001,
          1.53563201e-001, 1.07283048e-001, 1.94314450e-001,
          1.25995904e-001, 3.38729993e-002, 7.49799535e-002,
          1.55883431e-001, 1.99691251e-001, 2.08668321e-001,
          1.34653062e-001, 2.15070263e-001, 2.15090215e-001,
          1.40593782e-001, 1.31599396e-001, 1.64805382e-001,
          1.69058353e-001, 2.26481184e-001, 2.26481184e-001,
          1.58195227e-001, 1.87841401e-001, 1.93540633e-001,
          1.82013944e-001, 1.65341690e-001, 1.45760089e-001 ]
      - [ 1.24599278e-001, 1.42030597e-001, 1.22239619e-001,
          1.73187882e-001, 3.00278455e-001, 1.45411864e-001,
          2.84715630e-002, 6.32087588e-002, 9.38614011e-002,
          2.32159331e-001, 2.20105588e-001, 1.04875535e-001,
          1.65589899e-001, 3.00278455e-001, 1.81588367e-001,
          9.57380831e-002, 7.92212859e-002, 1.45037532e-001,
          3.62244435e-002, 8.48027468e-002, 9.25670117e-002,
          2.28561133e-001, 3.00278455e-001, 1.76164716e-001,
          1.74569022e-002, 1.27622923e-002, 3.20890620e-002,
          5.80481663e-002, 1.06681980e-001, 1.01766460e-001,
          3.00278455e-001, 3.00278455e-001, 3.00278455e-001,
          5.13256267e-002, 9.43536498e-003, 2.66876407e-002,
          1.64308444e-001, 9.45756286e-002, 5.97255006e-002,
          2.28447095e-001, 3.09861690e-001, 1.76088929e-001,
          1.00066625e-001, 9.23526064e-002, 1.47783235e-001,
          1.15910456e-001, 6.66891187e-002, 1.52547851e-001,
          2.00206816e-001, 3.09861690e-001, 8.29414278e-002,
          4.46510874e-002, 9.30199921e-002, 1.76953599e-001,
          5.65428287e-002, 5.75834587e-002, 7.24188983e-002,
          3.09861690e-001, 3.09861690e-001, 2.72266090e-001,
          4.41691279e-002, 5.82963135e-003, 2.52495110e-002,
          8.70208070e-002, 9.75795165e-002, 1.06156193e-001,
          3.09861690e-001, 3.09861690e-001, 6.67944402e-002,
          2.55871117e-002, 1.42328627e-002, 7.39327446e-002,
          7.85160214e-002, 3.33979949e-002, 7.59712458e-002,
          1.17316686e-001, 2.95931280e-001, 2.00955972e-001,
          1.55990109e-001, 7.60262609e-002, 1.28051937e-001,
          2.14534719e-002, 1.90045200e-002, 1.70032885e-002,
          5.79151511e-002, 2.97386378e-001, 2.97386378e-001,
          2.97386378e-001, 1.13234445e-001, 5.13783805e-002,
          2.71266755e-002, 4.32823151e-002, 6.38431683e-002,
          2.97386378e-001, 2.97386378e-001, 1.71525329e-001,
          3.84869352e-002, 2.44445167e-002, 6.68986514e-002,
          1.92252882e-002, 5.06276228e-002, 9.68512744e-002,
          2.80255854e-001, 2.97386378e-001, 2.97386378e-001,
          1.28640354e-001, 7.23653883e-002, 3.80260907e-002,
          1.45295570e-002, 2.02105213e-002, 1.61584299e-002,
          4.46245037e-002, 3.03589046e-001, 3.31873566e-001,
          2.34577596e-001, 6.72005564e-002, 1.33886896e-002,
          8.24055076e-002, 7.39616677e-002, 3.43702398e-002,
          6.25082105e-002, 3.31873566e-001, 3.31873566e-001,
          1.15788914e-001, 2.72957087e-002, 2.68754512e-002,
          1.71174463e-002, 3.97836901e-002, 7.07193390e-002,
          7.71486089e-002, 3.31873566e-001, 3.31873566e-001,
          1.14260249e-001, 4.65918742e-002, 1.27586471e-002,
          3.61087583e-002, 2.59511862e-002, 2.92852055e-002,
          3.91586386e-002, 3.31873566e-001, 3.31873566e-001,
          6.92322701e-002, 2.48044785e-002, 2.69218870e-002,
          4.69567142e-002, 3.09613608e-002, 5.70849814e-002,
          1.41083717e-001, 2.86744326e-001, 2.11426347e-001,
          4.01135981e-002, 4.39968817e-002, 6.77714869e-002,
          2.74682101e-002, 2.71351002e-002, 4.31314409e-002,
          2.86744326e-001, 2.86744326e-001, 2.86744326e-001,
          2.81225797e-002, 3.86380814e-002, 3.33829001e-002,
          2.32353628e-001, 8.59766304e-002, 1.01180337e-001,
          9.94860008e-002, 2.86744326e-001, 1.42421767e-001,
          7.56805167e-002, 7.80608878e-002, 2.18144163e-001,
          2.67092884e-001, 1.71325728e-001, 1.15288831e-001,
          1.10537842e-001, 2.86744326e-001, 2.86744326e-001,
          6.48910478e-002, 8.00326616e-002, 1.94007874e-001,
          8.58045295e-002, 4.05547135e-002, 4.75464351e-002,
          2.40060940e-001, 2.60140091e-001, 2.60140091e-001,
          2.74653919e-002, 3.24938856e-002, 3.12603489e-002,
          2.11321130e-001, 9.29664001e-002, 8.26683119e-002,
          2.56582826e-001, 2.60140091e-001, 7.71756396e-002,
          3.27782817e-002, 5.32198586e-002, 1.65399462e-001,
          1.71579733e-001, 1.49346232e-001, 1.37794465e-001,
          1.40017867e-001, 2.60140091e-001, 2.51808316e-001,
          5.48571981e-002, 5.55098578e-002, 7.76877552e-002,
          2.60140091e-001, 1.77204743e-001, 2.29356885e-001,
          2.57254183e-001, 2.31722817e-001, 9.74815562e-002,
          5.61345257e-002, 8.05144757e-002, 1.87819496e-001,
          6.21545240e-002, 7.66817927e-002, 1.34544641e-001,
          3.03198546e-001, 3.03198546e-001, 7.56393597e-002,
          1.79217178e-002, 2.81020254e-002, 8.79459456e-002,
          1.77633427e-002, 6.24484681e-002, 1.59410462e-001,
          3.03198546e-001, 3.03198546e-001, 1.21562153e-001,
          3.04241981e-002, 3.68963741e-002, 2.00500619e-002,
          8.62708464e-002, 1.20390400e-001, 3.03198546e-001,
          3.03198546e-001, 2.64772445e-001, 6.82335794e-002,
          3.44934575e-002, 4.08099331e-002, 9.33058634e-002,
          2.96734204e-003, 4.92549874e-002, 2.26122469e-001,
          3.03198546e-001, 3.03198546e-001, 9.57702696e-002,
          2.92812791e-002, 7.85032567e-003, 1.07067153e-002,
          1.19616352e-002, 2.10344642e-002, 5.43116555e-002,
          1.01300307e-001, 3.86546135e-001, 2.34396607e-001,
          2.35716030e-002, 1.72151010e-002, 6.80288579e-003,
          6.81994483e-003, 2.41037435e-003, 8.80012196e-003,
          6.55549690e-002, 3.86546135e-001, 3.86546135e-001,
          2.07501985e-002, 3.74916196e-003, 7.93472398e-003,
          1.40628964e-003, 9.09083814e-004, 2.94526033e-002,
